{"learner":{"attributes":{"best_iteration":"2099","best_score":"10153.339559317945","scikit_learn":"{\"_estimator_type\": \"regressor\"}"},"feature_names":["hour","dayofweek","dayofmonth","weekofyear","dayofyear","month","quarter","year","lags_1","lags_2","lags_3"],"feature_types":["int","int","int","int","int","int","int","int","int","int","int"],"gradient_booster":{"model":{"gbtree_model_param":{"num_parallel_tree":"1","num_trees":"2100"},"iteration_indptr":[0,1,2,3,4,5,6,7,8,9,10,11,12,13,14,15,16,17,18,19,20,21,22,23,24,25,26,27,28,29,30,31,32,33,34,35,36,37,38,39,40,41,42,43,44,45,46,47,48,49,50,51,52,53,54,55,56,57,58,59,60,61,62,63,64,65,66,67,68,69,70,71,72,73,74,75,76,77,78,79,80,81,82,83,84,85,86,87,88,89,90,91,92,93,94,95,96,97,98,99,100,101,102,103,104,105,106,107,108,109,110,111,112,113,114,115,116,117,118,119,120,121,122,123,124,125,126,127,128,129,130,131,132,133,134,135,136,137,138,139,140,141,142,143,144,145,146,147,148,149,150,151,152,153,154,155,156,157,158,159,160,161,162,163,164,165,166,167,168,169,170,171,172,173,174,175,176,177,178,179,180,181,182,183,184,185,186,187,188,189,190,191,192,193,194,195,196,197,198,199,200,201,202,203,204,205,206,207,208,209,210,211,212,213,214,215,216,217,218,219,220,221,222,223,224,225,226,227,228,229,230,231,232,233,234,235,236,237,238,239,240,241,242,243,244,245,246,247,248,249,250,251,252,253,254,255,256,257,258,259,260,261,262,263,264,265,266,267,268,269,270,271,272,273,274,275,276,277,278,279,280,281,282,283,284,285,286,287,288,289,290,291,292,293,294,295,296,297,298,299,300,301,302,303,304,305,306,307,308,309,310,311,312,313,314,315,316,317,318,319,320,321,322,323,324,325,326,327,328,329,330,331,332,333,334,335,336,337,338,339,340,341,342,343,344,345,346,347,348,349,350,351,352,353,354,355,356,357,358,359,360,361,362,363,364,365,366,367,368,369,370,371,372,373,374,375,376,377,378,379,380,381,382,383,384,385,386,387,388,389,390,391,392,393,394,395,396,397,398,399,400,401,402,403,404,405,406,407,408,409,410,411,412,413,414,415,416,417,418,419,420,421,422,423,424,425,426,427,428,429,430,431,432,433,434,435,436,437,438,439,440,441,442,443,444,445,446,447,448,449,450,451,452,453,454,455,456,457,458,459,460,461,462,463,464,465,466,467,468,469,470,471,472,473,474,475,476,477,478,479,480,481,482,483,484,485,486,487,488,489,490,491,492,493,494,495,496,497,498,499,500,501,502,503,504,505,506,507,508,509,510,511,512,513,514,515,516,517,518,519,520,521,522,523,524,525,526,527,528,529,530,531,532,533,534,535,536,537,538,539,540,541,542,543,544,545,546,547,548,549,550,551,552,553,554,555,556,557,558,559,560,561,562,563,564,565,566,567,568,569,570,571,572,573,574,575,576,577,578,579,580,581,582,583,584,585,586,587,588,589,590,591,592,593,594,595,596,597,598,599,600,601,602,603,604,605,606,607,608,609,610,611,612,613,614,615,616,617,618,619,620,621,622,623,624,625,626,627,628,629,630,631,632,633,634,635,636,637,638,639,640,641,642,643,644,645,646,647,648,649,650,651,652,653,654,655,656,657,658,659,660,661,662,663,664,665,666,667,668,669,670,671,672,673,674,675,676,677,678,679,680,681,682,683,684,685,686,687,688,689,690,691,692,693,694,695,696,697,698,699,700,701,702,703,704,705,706,707,708,709,710,711,712,713,714,715,716,717,718,719,720,721,722,723,724,725,726,727,728,729,730,731,732,733,734,735,736,737,738,739,740,741,742,743,744,745,746,747,748,749,750,751,752,753,754,755,756,757,758,759,760,761,762,763,764,765,766,767,768,769,770,771,772,773,774,775,776,777,778,779,780,781,782,783,784,785,786,787,788,789,790,791,792,793,794,795,796,797,798,799,800,801,802,803,804,805,806,807,808,809,810,811,812,813,814,815,816,817,818,819,820,821,822,823,824,825,826,827,828,829,830,831,832,833,834,835,836,837,838,839,840,841,842,843,844,845,846,847,848,849,850,851,852,853,854,855,856,857,858,859,860,861,862,863,864,865,866,867,868,869,870,871,872,873,874,875,876,877,878,879,880,881,882,883,884,885,886,887,888,889,890,891,892,893,894,895,896,897,898,899,900,901,902,903,904,905,906,907,908,909,910,911,912,913,914,915,916,917,918,919,920,921,922,923,924,925,926,927,928,929,930,931,932,933,934,935,936,937,938,939,940,941,942,943,944,945,946,947,948,949,950,951,952,953,954,955,956,957,958,959,960,961,962,963,964,965,966,967,968,969,970,971,972,973,974,975,976,977,978,979,980,981,982,983,984,985,986,987,988,989,990,991,992,993,994,995,996,997,998,999,1000,1001,1002,1003,1004,1005,1006,1007,1008,1009,1010,1011,1012,1013,1014,1015,1016,1017,1018,1019,1020,1021,1022,1023,1024,1025,1026,1027,1028,1029,1030,1031,1032,1033,1034,1035,1036,1037,1038,1039,1040,1041,1042,1043,1044,1045,1046,1047,1048,1049,1050,1051,1052,1053,1054,1055,1056,1057,1058,1059,1060,1061,1062,1063,1064,1065,1066,1067,1068,1069,1070,1071,1072,1073,1074,1075,1076,1077,1078,1079,1080,1081,1082,1083,1084,1085,1086,1087,1088,1089,1090,1091,1092,1093,1094,1095,1096,1097,1098,1099,1100,1101,1102,1103,1104,1105,1106,1107,1108,1109,1110,1111,1112,1113,1114,1115,1116,1117,1118,1119,1120,1121,1122,1123,1124,1125,1126,1127,1128,1129,1130,1131,1132,1133,1134,1135,1136,1137,1138,1139,1140,1141,1142,1143,1144,1145,1146,1147,1148,1149,1150,1151,1152,1153,1154,1155,1156,1157,1158,1159,1160,1161,1162,1163,1164,1165,1166,1167,1168,1169,1170,1171,1172,1173,1174,1175,1176,1177,1178,1179,1180,1181,1182,1183,1184,1185,1186,1187,1188,1189,1190,1191,1192,1193,1194,1195,1196,1197,1198,1199,1200,1201,1202,1203,1204,1205,1206,1207,1208,1209,1210,1211,1212,1213,1214,1215,1216,1217,1218,1219,1220,1221,1222,1223,1224,1225,1226,1227,1228,1229,1230,1231,1232,1233,1234,1235,1236,1237,1238,1239,1240,1241,1242,1243,1244,1245,1246,1247,1248,1249,1250,1251,1252,1253,1254,1255,1256,1257,1258,1259,1260,1261,1262,1263,1264,1265,1266,1267,1268,1269,1270,1271,1272,1273,1274,1275,1276,1277,1278,1279,1280,1281,1282,1283,1284,1285,1286,1287,1288,1289,1290,1291,1292,1293,1294,1295,1296,1297,1298,1299,1300,1301,1302,1303,1304,1305,1306,1307,1308,1309,1310,1311,1312,1313,1314,1315,1316,1317,1318,1319,1320,1321,1322,1323,1324,1325,1326,1327,1328,1329,1330,1331,1332,1333,1334,1335,1336,1337,1338,1339,1340,1341,1342,1343,1344,1345,1346,1347,1348,1349,1350,1351,1352,1353,1354,1355,1356,1357,1358,1359,1360,1361,1362,1363,1364,1365,1366,1367,1368,1369,1370,1371,1372,1373,1374,1375,1376,1377,1378,1379,1380,1381,1382,1383,1384,1385,1386,1387,1388,1389,1390,1391,1392,1393,1394,1395,1396,1397,1398,1399,1400,1401,1402,1403,1404,1405,1406,1407,1408,1409,1410,1411,1412,1413,1414,1415,1416,1417,1418,1419,1420,1421,1422,1423,1424,1425,1426,1427,1428,1429,1430,1431,1432,1433,1434,1435,1436,1437,1438,1439,1440,1441,1442,1443,1444,1445,1446,1447,1448,1449,1450,1451,1452,1453,1454,1455,1456,1457,1458,1459,1460,1461,1462,1463,1464,1465,1466,1467,1468,1469,1470,1471,1472,1473,1474,1475,1476,1477,1478,1479,1480,1481,1482,1483,1484,1485,1486,1487,1488,1489,1490,1491,1492,1493,1494,1495,1496,1497,1498,1499,1500,1501,1502,1503,1504,1505,1506,1507,1508,1509,1510,1511,1512,1513,1514,1515,1516,1517,1518,1519,1520,1521,1522,1523,1524,1525,1526,1527,1528,1529,1530,1531,1532,1533,1534,1535,1536,1537,1538,1539,1540,1541,1542,1543,1544,1545,1546,1547,1548,1549,1550,1551,1552,1553,1554,1555,1556,1557,1558,1559,1560,1561,1562,1563,1564,1565,1566,1567,1568,1569,1570,1571,1572,1573,1574,1575,1576,1577,1578,1579,1580,1581,1582,1583,1584,1585,1586,1587,1588,1589,1590,1591,1592,1593,1594,1595,1596,1597,1598,1599,1600,1601,1602,1603,1604,1605,1606,1607,1608,1609,1610,1611,1612,1613,1614,1615,1616,1617,1618,1619,1620,1621,1622,1623,1624,1625,1626,1627,1628,1629,1630,1631,1632,1633,1634,1635,1636,1637,1638,1639,1640,1641,1642,1643,1644,1645,1646,1647,1648,1649,1650,1651,1652,1653,1654,1655,1656,1657,1658,1659,1660,1661,1662,1663,1664,1665,1666,1667,1668,1669,1670,1671,1672,1673,1674,1675,1676,1677,1678,1679,1680,1681,1682,1683,1684,1685,1686,1687,1688,1689,1690,1691,1692,1693,1694,1695,1696,1697,1698,1699,1700,1701,1702,1703,1704,1705,1706,1707,1708,1709,1710,1711,1712,1713,1714,1715,1716,1717,1718,1719,1720,1721,1722,1723,1724,1725,1726,1727,1728,1729,1730,1731,1732,1733,1734,1735,1736,1737,1738,1739,1740,1741,1742,1743,1744,1745,1746,1747,1748,1749,1750,1751,1752,1753,1754,1755,1756,1757,1758,1759,1760,1761,1762,1763,1764,1765,1766,1767,1768,1769,1770,1771,1772,1773,1774,1775,1776,1777,1778,1779,1780,1781,1782,1783,1784,1785,1786,1787,1788,1789,1790,1791,1792,1793,1794,1795,1796,1797,1798,1799,1800,1801,1802,1803,1804,1805,1806,1807,1808,1809,1810,1811,1812,1813,1814,1815,1816,1817,1818,1819,1820,1821,1822,1823,1824,1825,1826,1827,1828,1829,1830,1831,1832,1833,1834,1835,1836,1837,1838,1839,1840,1841,1842,1843,1844,1845,1846,1847,1848,1849,1850,1851,1852,1853,1854,1855,1856,1857,1858,1859,1860,1861,1862,1863,1864,1865,1866,1867,1868,1869,1870,1871,1872,1873,1874,1875,1876,1877,1878,1879,1880,1881,1882,1883,1884,1885,1886,1887,1888,1889,1890,1891,1892,1893,1894,1895,1896,1897,1898,1899,1900,1901,1902,1903,1904,1905,1906,1907,1908,1909,1910,1911,1912,1913,1914,1915,1916,1917,1918,1919,1920,1921,1922,1923,1924,1925,1926,1927,1928,1929,1930,1931,1932,1933,1934,1935,1936,1937,1938,1939,1940,1941,1942,1943,1944,1945,1946,1947,1948,1949,1950,1951,1952,1953,1954,1955,1956,1957,1958,1959,1960,1961,1962,1963,1964,1965,1966,1967,1968,1969,1970,1971,1972,1973,1974,1975,1976,1977,1978,1979,1980,1981,1982,1983,1984,1985,1986,1987,1988,1989,1990,1991,1992,1993,1994,1995,1996,1997,1998,1999,2000,2001,2002,2003,2004,2005,2006,2007,2008,2009,2010,2011,2012,2013,2014,2015,2016,2017,2018,2019,2020,2021,2022,2023,2024,2025,2026,2027,2028,2029,2030,2031,2032,2033,2034,2035,2036,2037,2038,2039,2040,2041,2042,2043,2044,2045,2046,2047,2048,2049,2050,2051,2052,2053,2054,2055,2056,2057,2058,2059,2060,2061,2062,2063,2064,2065,2066,2067,2068,2069,2070,2071,2072,2073,2074,2075,2076,2077,2078,2079,2080,2081,2082,2083,2084,2085,2086,2087,2088,2089,2090,2091,2092,2093,2094,2095,2096,2097,2098,2099,2100],"tree_info":[0,0,0,0,0,0,0,0,0,0,0,0,0,0,0,0,0,0,0,0,0,0,0,0,0,0,0,0,0,0,0,0,0,0,0,0,0,0,0,0,0,0,0,0,0,0,0,0,0,0,0,0,0,0,0,0,0,0,0,0,0,0,0,0,0,0,0,0,0,0,0,0,0,0,0,0,0,0,0,0,0,0,0,0,0,0,0,0,0,0,0,0,0,0,0,0,0,0,0,0,0,0,0,0,0,0,0,0,0,0,0,0,0,0,0,0,0,0,0,0,0,0,0,0,0,0,0,0,0,0,0,0,0,0,0,0,0,0,0,0,0,0,0,0,0,0,0,0,0,0,0,0,0,0,0,0,0,0,0,0,0,0,0,0,0,0,0,0,0,0,0,0,0,0,0,0,0,0,0,0,0,0,0,0,0,0,0,0,0,0,0,0,0,0,0,0,0,0,0,0,0,0,0,0,0,0,0,0,0,0,0,0,0,0,0,0,0,0,0,0,0,0,0,0,0,0,0,0,0,0,0,0,0,0,0,0,0,0,0,0,0,0,0,0,0,0,0,0,0,0,0,0,0,0,0,0,0,0,0,0,0,0,0,0,0,0,0,0,0,0,0,0,0,0,0,0,0,0,0,0,0,0,0,0,0,0,0,0,0,0,0,0,0,0,0,0,0,0,0,0,0,0,0,0,0,0,0,0,0,0,0,0,0,0,0,0,0,0,0,0,0,0,0,0,0,0,0,0,0,0,0,0,0,0,0,0,0,0,0,0,0,0,0,0,0,0,0,0,0,0,0,0,0,0,0,0,0,0,0,0,0,0,0,0,0,0,0,0,0,0,0,0,0,0,0,0,0,0,0,0,0,0,0,0,0,0,0,0,0,0,0,0,0,0,0,0,0,0,0,0,0,0,0,0,0,0,0,0,0,0,0,0,0,0,0,0,0,0,0,0,0,0,0,0,0,0,0,0,0,0,0,0,0,0,0,0,0,0,0,0,0,0,0,0,0,0,0,0,0,0,0,0,0,0,0,0,0,0,0,0,0,0,0,0,0,0,0,0,0,0,0,0,0,0,0,0,0,0,0,0,0,0,0,0,0,0,0,0,0,0,0,0,0,0,0,0,0,0,0,0,0,0,0,0,0,0,0,0,0,0,0,0,0,0,0,0,0,0,0,0,0,0,0,0,0,0,0,0,0,0,0,0,0,0,0,0,0,0,0,0,0,0,0,0,0,0,0,0,0,0,0,0,0,0,0,0,0,0,0,0,0,0,0,0,0,0,0,0,0,0,0,0,0,0,0,0,0,0,0,0,0,0,0,0,0,0,0,0,0,0,0,0,0,0,0,0,0,0,0,0,0,0,0,0,0,0,0,0,0,0,0,0,0,0,0,0,0,0,0,0,0,0,0,0,0,0,0,0,0,0,0,0,0,0,0,0,0,0,0,0,0,0,0,0,0,0,0,0,0,0,0,0,0,0,0,0,0,0,0,0,0,0,0,0,0,0,0,0,0,0,0,0,0,0,0,0,0,0,0,0,0,0,0,0,0,0,0,0,0,0,0,0,0,0,0,0,0,0,0,0,0,0,0,0,0,0,0,0,0,0,0,0,0,0,0,0,0,0,0,0,0,0,0,0,0,0,0,0,0,0,0,0,0,0,0,0,0,0,0,0,0,0,0,0,0,0,0,0,0,0,0,0,0,0,0,0,0,0,0,0,0,0,0,0,0,0,0,0,0,0,0,0,0,0,0,0,0,0,0,0,0,0,0,0,0,0,0,0,0,0,0,0,0,0,0,0,0,0,0,0,0,0,0,0,0,0,0,0,0,0,0,0,0,0,0,0,0,0,0,0,0,0,0,0,0,0,0,0,0,0,0,0,0,0,0,0,0,0,0,0,0,0,0,0,0,0,0,0,0,0,0,0,0,0,0,0,0,0,0,0,0,0,0,0,0,0,0,0,0,0,0,0,0,0,0,0,0,0,0,0,0,0,0,0,0,0,0,0,0,0,0,0,0,0,0,0,0,0,0,0,0,0,0,0,0,0,0,0,0,0,0,0,0,0,0,0,0,0,0,0,0,0,0,0,0,0,0,0,0,0,0,0,0,0,0,0,0,0,0,0,0,0,0,0,0,0,0,0,0,0,0,0,0,0,0,0,0,0,0,0,0,0,0,0,0,0,0,0,0,0,0,0,0,0,0,0,0,0,0,0,0,0,0,0,0,0,0,0,0,0,0,0,0,0,0,0,0,0,0,0,0,0,0,0,0,0,0,0,0,0,0,0,0,0,0,0,0,0,0,0,0,0,0,0,0,0,0,0,0,0,0,0,0,0,0,0,0,0,0,0,0,0,0,0,0,0,0,0,0,0,0,0,0,0,0,0,0,0,0,0,0,0,0,0,0,0,0,0,0,0,0,0,0,0,0,0,0,0,0,0,0,0,0,0,0,0,0,0,0,0,0,0,0,0,0,0,0,0,0,0,0,0,0,0,0,0,0,0,0,0,0,0,0,0,0,0,0,0,0,0,0,0,0,0,0,0,0,0,0,0,0,0,0,0,0,0,0,0,0,0,0,0,0,0,0,0,0,0,0,0,0,0,0,0,0,0,0,0,0,0,0,0,0,0,0,0,0,0,0,0,0,0,0,0,0,0,0,0,0,0,0,0,0,0,0,0,0,0,0,0,0,0,0,0,0,0,0,0,0,0,0,0,0,0,0,0,0,0,0,0,0,0,0,0,0,0,0,0,0,0,0,0,0,0,0,0,0,0,0,0,0,0,0,0,0,0,0,0,0,0,0,0,0,0,0,0,0,0,0,0,0,0,0,0,0,0,0,0,0,0,0,0,0,0,0,0,0,0,0,0,0,0,0,0,0,0,0,0,0,0,0,0,0,0,0,0,0,0,0,0,0,0,0,0,0,0,0,0,0,0,0,0,0,0,0,0,0,0,0,0,0,0,0,0,0,0,0,0,0,0,0,0,0,0,0,0,0,0,0,0,0,0,0,0,0,0,0,0,0,0,0,0,0,0,0,0,0,0,0,0,0,0,0,0,0,0,0,0,0,0,0,0,0,0,0,0,0,0,0,0,0,0,0,0,0,0,0,0,0,0,0,0,0,0,0,0,0,0,0,0,0,0,0,0,0,0,0,0,0,0,0,0,0,0,0,0,0,0,0,0,0,0,0,0,0,0,0,0,0,0,0,0,0,0,0,0,0,0,0,0,0,0,0,0,0,0,0,0,0,0,0,0,0,0,0,0,0,0,0,0,0,0,0,0,0,0,0,0,0,0,0,0,0,0,0,0,0,0,0,0,0,0,0,0,0,0,0,0,0,0,0,0,0,0,0,0,0,0,0,0,0,0,0,0,0,0,0,0,0,0,0,0,0,0,0,0,0,0,0,0,0,0,0,0,0,0,0,0,0,0,0,0,0,0,0,0,0,0,0,0,0,0,0,0,0,0,0,0,0,0,0,0,0,0,0,0,0,0,0,0,0,0,0,0,0,0,0,0,0,0,0,0,0,0,0,0,0,0,0,0,0,0,0,0,0,0,0,0,0,0,0,0,0,0,0,0,0,0,0,0,0,0,0,0,0,0,0,0,0,0,0,0,0,0,0,0,0,0,0,0,0,0,0,0,0,0,0,0,0,0,0,0,0,0,0,0,0,0,0,0,0,0,0,0,0,0,0,0,0,0,0,0,0,0,0,0,0,0,0,0,0,0,0,0,0,0,0,0,0,0,0,0,0,0,0,0,0,0,0,0,0,0,0,0,0,0,0,0,0,0,0,0,0,0,0,0,0,0,0,0,0,0,0,0,0,0,0,0,0,0,0,0,0,0,0,0,0,0,0,0,0,0,0,0,0,0,0,0,0,0,0,0,0,0,0,0,0,0,0,0,0,0,0,0,0,0,0,0,0,0,0,0,0,0,0,0,0,0,0,0,0,0,0,0,0,0,0,0,0,0,0,0,0,0,0,0,0,0,0,0,0,0,0,0,0,0,0,0,0,0,0,0,0,0,0,0,0,0,0,0,0,0,0,0,0,0,0,0,0,0,0,0,0,0,0,0,0,0,0,0,0,0,0,0,0,0,0,0,0,0,0,0,0,0,0,0,0,0,0,0,0,0,0,0,0,0,0,0,0,0,0,0,0,0,0,0,0,0,0,0,0,0,0,0,0,0,0,0,0,0,0,0,0,0,0,0,0,0,0,0,0,0,0,0,0,0,0,0,0,0,0,0,0,0,0,0,0,0,0,0,0,0,0,0,0,0,0,0,0,0,0,0,0,0,0,0,0,0,0,0,0,0,0,0,0,0,0,0,0,0,0,0,0,0,0,0,0,0,0,0,0,0,0,0,0,0,0,0,0,0,0,0,0,0,0,0,0,0,0,0,0,0,0,0,0,0,0,0,0,0,0,0,0,0,0,0,0,0,0,0,0,0,0,0,0,0,0,0,0,0,0,0,0,0,0,0,0,0,0,0,0,0,0,0,0,0,0,0,0,0,0,0,0,0,0,0,0,0,0,0,0,0,0,0,0,0,0,0,0,0,0,0,0,0,0,0,0,0,0,0,0,0,0,0,0,0,0,0,0,0,0,0,0,0,0,0,0,0,0,0,0,0,0,0,0,0,0,0,0,0,0,0,0,0,0,0,0,0,0,0,0,0,0,0,0,0,0,0,0,0,0,0,0,0,0,0,0,0,0,0,0,0,0,0,0,0,0,0,0,0],"trees":[{"base_weights":[-3.4214077E1,-1.872636E3,2.4683225E3],"categories":[],"categories_nodes":[],"categories_segments":[],"categories_sizes":[],"default_left":[0,0,0],"id":0,"left_children":[1,-1,-1],"loss_changes":[3.2414538E13,0E0,0E0],"parents":[2147483647,0,0],"right_children":[2,-1,-1],"split_conditions":[5.3762E4,-1.872636E3,2.4683225E3],"split_indices":[9,0,0],"split_type":[0,0,0],"sum_hessian":[7.0156E4,3.9947E4,3.0209E4],"tree_param":{"num_deleted":"0","num_feature":"11","num_nodes":"3","size_leaf_vector":"1"}},{"base_weights":[-7.00114E1,-1.7170996E3,2.3418662E3],"categories":[],"categories_nodes":[],"categories_segments":[],"categories_sizes":[],"default_left":[0,0,0],"id":1,"left_children":[1,-1,-1],"loss_changes":[2.8163355E13,0E0,0E0],"parents":[2147483647,0,0],"right_children":[2,-1,-1],"split_conditions":[5.2698E4,-1.7170996E3,2.3418662E3],"split_indices":[8,0,0],"split_type":[0,0,0],"sum_hessian":[7.0112E4,4.0573E4,2.9539E4],"tree_param":{"num_deleted":"0","num_feature":"11","num_nodes":"3","size_leaf_vector":"1"}},{"base_weights":[1.7070019E1,-1.6627422E3,1.9721346E3],"categories":[],"categories_nodes":[],"categories_segments":[],"categories_sizes":[],"default_left":[0,0,0],"id":2,"left_children":[1,-1,-1],"loss_changes":[2.2928547E13,0E0,0E0],"parents":[2147483647,0,0],"right_children":[2,-1,-1],"split_conditions":[4.8615E4,-1.6627422E3,1.9721346E3],"split_indices":[8,0,0],"split_type":[0,0,0],"sum_hessian":[6.9909E4,3.7897E4,3.2012E4],"tree_param":{"num_deleted":"0","num_feature":"11","num_nodes":"3","size_leaf_vector":"1"}},{"base_weights":[5.494382E1,-1.4690056E3,1.8690957E3],"categories":[],"categories_nodes":[],"categories_segments":[],"categories_sizes":[],"default_left":[0,0,0],"id":3,"left_children":[1,-1,-1],"loss_changes":[1.9217573E13,0E0,0E0],"parents":[2147483647,0,0],"right_children":[2,-1,-1],"split_conditions":[5.3632E4,-1.4690056E3,1.8690957E3],"split_indices":[10,0,0],"split_type":[0,0,0],"sum_hessian":[6.9934E4,3.9043E4,3.0891E4],"tree_param":{"num_deleted":"0","num_feature":"11","num_nodes":"3","size_leaf_vector":"1"}},{"base_weights":[4.565949E1,-1.1593365E3,2.036566E3],"categories":[],"categories_nodes":[],"categories_segments":[],"categories_sizes":[],"default_left":[0,0,0],"id":4,"left_children":[1,-1,-1],"loss_changes":[1.659106E13,0E0,0E0],"parents":[2147483647,0,0],"right_children":[2,-1,-1],"split_conditions":[5.978E4,-1.1593365E3,2.036566E3],"split_indices":[8,0,0],"split_type":[0,0,0],"sum_hessian":[7.0149E4,4.4602E4,2.5547E4],"tree_param":{"num_deleted":"0","num_feature":"11","num_nodes":"3","size_leaf_vector":"1"}},{"base_weights":[-4.42582E1,-1.4098926E3,1.3657982E3],"categories":[],"categories_nodes":[],"categories_segments":[],"categories_sizes":[],"default_left":[0,0,0],"id":5,"left_children":[1,-1,-1],"loss_changes":[1.3453478E13,0E0,0E0],"parents":[2147483647,0,0],"right_children":[2,-1,-1],"split_conditions":[4.273E4,-1.4098926E3,1.3657982E3],"split_indices":[8,0,0],"split_type":[0,0,0],"sum_hessian":[6.9857E4,3.4485E4,3.5372E4],"tree_param":{"num_deleted":"0","num_feature":"11","num_nodes":"3","size_leaf_vector":"1"}},{"base_weights":[-2.3427822E1,-9.944349E2,1.6826656E3],"categories":[],"categories_nodes":[],"categories_segments":[],"categories_sizes":[],"default_left":[0,0,0],"id":6,"left_children":[1,-1,-1],"loss_changes":[1.1708137E13,0E0,0E0],"parents":[2147483647,0,0],"right_children":[2,-1,-1],"split_conditions":[6.1023E4,-9.944349E2,1.6826656E3],"split_indices":[9,0,0],"split_type":[0,0,0],"sum_hessian":[7.0036E4,4.4082E4,2.5954E4],"tree_param":{"num_deleted":"0","num_feature":"11","num_nodes":"3","size_leaf_vector":"1"}},{"base_weights":[5.6342306E0,-1.2152874E3,1.1573397E3],"categories":[],"categories_nodes":[],"categories_segments":[],"categories_sizes":[],"default_left":[0,0,0],"id":7,"left_children":[1,-1,-1],"loss_changes":[9.817705E12,0E0,0E0],"parents":[2147483647,0,0],"right_children":[2,-1,-1],"split_conditions":[4.3533E4,-1.2152874E3,1.1573397E3],"split_indices":[9,0,0],"split_type":[0,0,0],"sum_hessian":[6.9802E4,3.4032E4,3.577E4],"tree_param":{"num_deleted":"0","num_feature":"11","num_nodes":"3","size_leaf_vector":"1"}},{"base_weights":[3.4461536E1,-9.0444904E2,1.3288539E3],"categories":[],"categories_nodes":[],"categories_segments":[],"categories_sizes":[],"default_left":[0,0,0],"id":8,"left_children":[1,-1,-1],"loss_changes":[8.4269287E12,0E0,0E0],"parents":[2147483647,0,0],"right_children":[2,-1,-1],"split_conditions":[5.8024E4,-9.0444904E2,1.3288539E3],"split_indices":[10,0,0],"split_type":[0,0,0],"sum_hessian":[7.0028E4,4.156E4,2.8468E4],"tree_param":{"num_deleted":"0","num_feature":"11","num_nodes":"3","size_leaf_vector":"1"}},{"base_weights":[1.9156078E1,-6.849529E2,1.5720294E3],"categories":[],"categories_nodes":[],"categories_segments":[],"categories_sizes":[],"default_left":[0,0,0],"id":9,"left_children":[1,-1,-1],"loss_changes":[7.5633593E12,0E0,0E0],"parents":[2147483647,0,0],"right_children":[2,-1,-1],"split_conditions":[6.6421E4,-6.849529E2,1.5720294E3],"split_indices":[8,0,0],"split_type":[0,0,0],"sum_hessian":[7.0129E4,4.8787E4,2.1342E4],"tree_param":{"num_deleted":"0","num_feature":"11","num_nodes":"3","size_leaf_vector":"1"}},{"base_weights":[7.996208E0,-5.67355E2,1.5356107E3],"categories":[],"categories_nodes":[],"categories_segments":[],"categories_sizes":[],"default_left":[0,0,0],"id":10,"left_children":[1,-1,-1],"loss_changes":[6.0996216E12,0E0,0E0],"parents":[2147483647,0,0],"right_children":[2,-1,-1],"split_conditions":[7.0207E4,-5.67355E2,1.5356107E3],"split_indices":[8,0,0],"split_type":[0,0,0],"sum_hessian":[6.9947E4,5.105E4,1.8897E4],"tree_param":{"num_deleted":"0","num_feature":"11","num_nodes":"3","size_leaf_vector":"1"}},{"base_weights":[7.1479697E0,-8.882877E2,8.642181E2],"categories":[],"categories_nodes":[],"categories_segments":[],"categories_sizes":[],"default_left":[0,0,0],"id":11,"left_children":[1,-1,-1],"loss_changes":[5.386722E12,0E0,0E0],"parents":[2147483647,0,0],"right_children":[2,-1,-1],"split_conditions":[4.5098E4,-8.882877E2,8.642181E2],"split_indices":[10,0,0],"split_type":[0,0,0],"sum_hessian":[7.0169E4,3.4574E4,3.5595E4],"tree_param":{"num_deleted":"0","num_feature":"11","num_nodes":"3","size_leaf_vector":"1"}},{"base_weights":[-1.9962797E1,-5.20836E2,1.2965802E3],"categories":[],"categories_nodes":[],"categories_segments":[],"categories_sizes":[],"default_left":[0,0,0],"id":12,"left_children":[1,-1,-1],"loss_changes":[4.7253E12,0E0,0E0],"parents":[2147483647,0,0],"right_children":[2,-1,-1],"split_conditions":[7.0743E4,-5.20836E2,1.2965802E3],"split_indices":[9,0,0],"split_type":[0,0,0],"sum_hessian":[7.0132E4,5.0111E4,2.0021E4],"tree_param":{"num_deleted":"0","num_feature":"11","num_nodes":"3","size_leaf_vector":"1"}},{"base_weights":[-3.5308834E1,-8.6548157E2,6.600567E2],"categories":[],"categories_nodes":[],"categories_segments":[],"categories_sizes":[],"default_left":[0,0,0],"id":13,"left_children":[1,-1,-1],"loss_changes":[4.0012268E12,0E0,0E0],"parents":[2147483647,0,0],"right_children":[2,-1,-1],"split_conditions":[3.7956E4,-8.6548157E2,6.600567E2],"split_indices":[9,0,0],"split_type":[0,0,0],"sum_hessian":[6.9952E4,3.0428E4,3.9524E4],"tree_param":{"num_deleted":"0","num_feature":"11","num_nodes":"3","size_leaf_vector":"1"}},{"base_weights":[2.5686563E1,-4.1524664E2,1.1999857E3],"categories":[],"categories_nodes":[],"categories_segments":[],"categories_sizes":[],"default_left":[0,0,0],"id":14,"left_children":[1,-1,-1],"loss_changes":[3.5018941E12,0E0,0E0],"parents":[2147483647,0,0],"right_children":[2,-1,-1],"split_conditions":[7.1567E4,-4.1524664E2,1.1999857E3],"split_indices":[8,0,0],"split_type":[0,0,0],"sum_hessian":[6.9994E4,5.1889E4,1.8105E4],"tree_param":{"num_deleted":"0","num_feature":"11","num_nodes":"3","size_leaf_vector":"1"}},{"base_weights":[1.9789081E0,-7.87681E2,5.5507324E2],"categories":[],"categories_nodes":[],"categories_segments":[],"categories_sizes":[],"default_left":[0,0,0],"id":15,"left_children":[1,-1,-1],"loss_changes":[3.0589984E12,0E0,0E0],"parents":[2147483647,0,0],"right_children":[2,-1,-1],"split_conditions":[3.5393E4,-7.87681E2,5.5507324E2],"split_indices":[8,0,0],"split_type":[0,0,0],"sum_hessian":[6.997E4,2.8914E4,4.1056E4],"tree_param":{"num_deleted":"0","num_feature":"11","num_nodes":"3","size_leaf_vector":"1"}},{"base_weights":[3.0204742E1,-3.4013968E2,1.1642411E3],"categories":[],"categories_nodes":[],"categories_segments":[],"categories_sizes":[],"default_left":[0,0,0],"id":16,"left_children":[1,-1,-1],"loss_changes":[2.7934966E12,0E0,0E0],"parents":[2147483647,0,0],"right_children":[2,-1,-1],"split_conditions":[7.7318E4,-3.4013968E2,1.1642411E3],"split_indices":[9,0,0],"split_type":[0,0,0],"sum_hessian":[7.0101E4,5.4111E4,1.599E4],"tree_param":{"num_deleted":"0","num_feature":"11","num_nodes":"3","size_leaf_vector":"1"}},{"base_weights":[2.7963802E1,-3.6679965E2,9.4378534E2],"categories":[],"categories_nodes":[],"categories_segments":[],"categories_sizes":[],"default_left":[0,0,0],"id":17,"left_children":[1,-1,-1],"loss_changes":[2.4333179E12,0E0,0E0],"parents":[2147483647,0,0],"right_children":[2,-1,-1],"split_conditions":[7.2125E4,-3.6679965E2,9.4378534E2],"split_indices":[10,0,0],"split_type":[0,0,0],"sum_hessian":[6.9964E4,5.0234E4,1.973E4],"tree_param":{"num_deleted":"0","num_feature":"11","num_nodes":"3","size_leaf_vector":"1"}},{"base_weights":[4.58804E1,-6.115157E2,4.690648E2],"categories":[],"categories_nodes":[],"categories_segments":[],"categories_sizes":[],"default_left":[0,0,0],"id":18,"left_children":[1,-1,-1],"loss_changes":[2.0010436E12,0E0,0E0],"parents":[2147483647,0,0],"right_children":[2,-1,-1],"split_conditions":[3.8265E4,-6.115157E2,4.690648E2],"split_indices":[10,0,0],"split_type":[0,0,0],"sum_hessian":[6.9924E4,3.0056E4,3.9868E4],"tree_param":{"num_deleted":"0","num_feature":"11","num_nodes":"3","size_leaf_vector":"1"}},{"base_weights":[-2.0278736E1,-2.6686707E2,1.0055659E3],"categories":[],"categories_nodes":[],"categories_segments":[],"categories_sizes":[],"default_left":[0,0,0],"id":19,"left_children":[1,-1,-1],"loss_changes":[1.8714746E12,0E0,0E0],"parents":[2147483647,0,0],"right_children":[2,-1,-1],"split_conditions":[7.7383E4,-2.6686707E2,1.0055659E3],"split_indices":[8,0,0],"split_type":[0,0,0],"sum_hessian":[7.013E4,5.5534E4,1.4596E4],"tree_param":{"num_deleted":"0","num_feature":"11","num_nodes":"3","size_leaf_vector":"1"}},{"base_weights":[1.0632761E1,-2.420784E2,9.3416473E2],"categories":[],"categories_nodes":[],"categories_segments":[],"categories_sizes":[],"default_left":[0,0,0],"id":20,"left_children":[1,-1,-1],"loss_changes":[1.5883806E12,0E0,0E0],"parents":[2147483647,0,0],"right_children":[2,-1,-1],"split_conditions":[7.9541E4,-2.420784E2,9.3416473E2],"split_indices":[9,0,0],"split_type":[0,0,0],"sum_hessian":[7.0009E4,5.5538E4,1.4471E4],"tree_param":{"num_deleted":"0","num_feature":"11","num_nodes":"3","size_leaf_vector":"1"}},{"base_weights":[-2.2244574E1,-6.4353235E2,3.3322275E2],"categories":[],"categories_nodes":[],"categories_segments":[],"categories_sizes":[],"default_left":[0,0,0],"id":21,"left_children":[1,-1,-1],"loss_changes":[1.5091873E12,0E0,0E0],"parents":[2147483647,0,0],"right_children":[2,-1,-1],"split_conditions":[3.1438E4,-6.4353235E2,3.3322275E2],"split_indices":[8,0,0],"split_type":[0,0,0],"sum_hessian":[7.0152E4,2.4092E4,4.606E4],"tree_param":{"num_deleted":"0","num_feature":"11","num_nodes":"3","size_leaf_vector":"1"}},{"base_weights":[-1.570744E1,-1.9424614E2,9.3018964E2],"categories":[],"categories_nodes":[],"categories_segments":[],"categories_sizes":[],"default_left":[0,0,0],"id":22,"left_children":[1,-1,-1],"loss_changes":[1.2552548E12,0E0,0E0],"parents":[2147483647,0,0],"right_children":[2,-1,-1],"split_conditions":[8.4981E4,-1.9424614E2,9.3018964E2],"split_indices":[10,0,0],"split_type":[0,0,0],"sum_hessian":[6.9918E4,5.7938E4,1.198E4],"tree_param":{"num_deleted":"0","num_feature":"11","num_nodes":"3","size_leaf_vector":"1"}},{"base_weights":[-1.4355812E1,-5.9906323E2,2.7583688E2],"categories":[],"categories_nodes":[],"categories_segments":[],"categories_sizes":[],"default_left":[0,0,0],"id":23,"left_children":[1,-1,-1],"loss_changes":[1.1636349E12,0E0,0E0],"parents":[2147483647,0,0],"right_children":[2,-1,-1],"split_conditions":[3.0255E4,-5.9906323E2,2.7583688E2],"split_indices":[8,0,0],"split_type":[0,0,0],"sum_hessian":[7.0221E4,2.2254E4,4.7967E4],"tree_param":{"num_deleted":"0","num_feature":"11","num_nodes":"3","size_leaf_vector":"1"}},{"base_weights":[3.5429398E1,8.68988E2,-1.7723132E2],"categories":[],"categories_nodes":[],"categories_segments":[],"categories_sizes":[],"default_left":[0,0,0],"id":24,"left_children":[1,-1,-1],"loss_changes":[1.092601E12,0E0,0E0],"parents":[2147483647,0,0],"right_children":[2,-1,-1],"split_conditions":[1E1,8.68988E2,-1.7723132E2],"split_indices":[3,0,0],"split_type":[0,0,0],"sum_hessian":[6.9835E4,1.2066E4,5.7769E4],"tree_param":{"num_deleted":"0","num_feature":"11","num_nodes":"3","size_leaf_vector":"1"}},{"base_weights":[4.2298293E0,-1.6807242E2,7.9022375E2],"categories":[],"categories_nodes":[],"categories_segments":[],"categories_sizes":[],"default_left":[0,0,0],"id":25,"left_children":[1,-1,-1],"loss_changes":[9.320768E11,0E0,0E0],"parents":[2147483647,0,0],"right_children":[2,-1,-1],"split_conditions":[8.3427E4,-1.6807242E2,7.9022375E2],"split_indices":[9,0,0],"split_type":[0,0,0],"sum_hessian":[7.0038E4,5.7724E4,1.2314E4],"tree_param":{"num_deleted":"0","num_feature":"11","num_nodes":"3","size_leaf_vector":"1"}},{"base_weights":[1.2379629E1,2.3056929E2,-5.715983E2],"categories":[],"categories_nodes":[],"categories_segments":[],"categories_sizes":[],"default_left":[0,0,0],"id":26,"left_children":[1,-1,-1],"loss_changes":[9.207675E11,0E0,0E0],"parents":[2147483647,0,0],"right_children":[2,-1,-1],"split_conditions":[5E0,2.3056929E2,-5.715983E2],"split_indices":[1,0,0],"split_type":[0,0,0],"sum_hessian":[7.0088E4,5.0051E4,2.0037E4],"tree_param":{"num_deleted":"0","num_feature":"11","num_nodes":"3","size_leaf_vector":"1"}},{"base_weights":[-2.6487342E-1,2.3410501E2,-5.492614E2],"categories":[],"categories_nodes":[],"categories_segments":[],"categories_sizes":[],"default_left":[0,0,0],"id":27,"left_children":[1,-1,-1],"loss_changes":[9.002165E11,0E0,0E0],"parents":[2147483647,0,0],"right_children":[2,-1,-1],"split_conditions":[2.022E3,2.3410501E2,-5.492614E2],"split_indices":[7,0,0],"split_type":[0,0,0],"sum_hessian":[7.0003E4,4.9081E4,2.0922E4],"tree_param":{"num_deleted":"0","num_feature":"11","num_nodes":"3","size_leaf_vector":"1"}},{"base_weights":[2.2301388E1,-1.4603804E2,8.537549E2],"categories":[],"categories_nodes":[],"categories_segments":[],"categories_sizes":[],"default_left":[0,0,0],"id":28,"left_children":[1,-1,-1],"loss_changes":[8.842956E11,0E0,0E0],"parents":[2147483647,0,0],"right_children":[2,-1,-1],"split_conditions":[8.4929E4,-1.4603804E2,8.537549E2],"split_indices":[8,0,0],"split_type":[0,0,0],"sum_hessian":[7.0039E4,5.9653E4,1.0386E4],"tree_param":{"num_deleted":"0","num_feature":"11","num_nodes":"3","size_leaf_vector":"1"}},{"base_weights":[-1.8592073E1,-5.538935E2,1.9882188E2],"categories":[],"categories_nodes":[],"categories_segments":[],"categories_sizes":[],"default_left":[0,0,0],"id":29,"left_children":[1,-1,-1],"loss_changes":[7.752028E11,0E0,0E0],"parents":[2147483647,0,0],"right_children":[2,-1,-1],"split_conditions":[2.827E4,-5.538935E2,1.9882188E2],"split_indices":[8,0,0],"split_type":[0,0,0],"sum_hessian":[6.9973E4,1.8655E4,5.1318E4],"tree_param":{"num_deleted":"0","num_feature":"11","num_nodes":"3","size_leaf_vector":"1"}},{"base_weights":[1.6023207E1,8.590417E2,-1.1986257E2],"categories":[],"categories_nodes":[],"categories_segments":[],"categories_sizes":[],"default_left":[0,0,0],"id":30,"left_children":[1,-1,-1],"loss_changes":[7.30739E11,0E0,0E0],"parents":[2147483647,0,0],"right_children":[2,-1,-1],"split_conditions":[4.6E1,8.590417E2,-1.1986257E2],"split_indices":[4,0,0],"split_type":[0,0,0],"sum_hessian":[7.0161E4,8.705E3,6.1456E4],"tree_param":{"num_deleted":"0","num_feature":"11","num_nodes":"3","size_leaf_vector":"1"}},{"base_weights":[-1.70372E1,2.0723204E2,-4.912881E2],"categories":[],"categories_nodes":[],"categories_segments":[],"categories_sizes":[],"default_left":[0,0,0],"id":31,"left_children":[1,-1,-1],"loss_changes":[7.187831E11,0E0,0E0],"parents":[2147483647,0,0],"right_children":[2,-1,-1],"split_conditions":[2.022E3,2.0723204E2,-4.912881E2],"split_indices":[7,0,0],"split_type":[0,0,0],"sum_hessian":[7.0266E4,4.9249E4,2.1017E4],"tree_param":{"num_deleted":"0","num_feature":"11","num_nodes":"3","size_leaf_vector":"1"}},{"base_weights":[1.7456777E0,-4.0072754E2,2.3751773E2],"categories":[],"categories_nodes":[],"categories_segments":[],"categories_sizes":[],"default_left":[0,0,0],"id":32,"left_children":[1,-1,-1],"loss_changes":[6.665258E11,0E0,0E0],"parents":[2147483647,0,0],"right_children":[2,-1,-1],"split_conditions":[3.355E4,-4.0072754E2,2.3751773E2],"split_indices":[9,0,0],"split_type":[0,0,0],"sum_hessian":[7.0047E4,2.6048E4,4.3999E4],"tree_param":{"num_deleted":"0","num_feature":"11","num_nodes":"3","size_leaf_vector":"1"}},{"base_weights":[3.2704177E0,2.044229E2,-5.0939267E2],"categories":[],"categories_nodes":[],"categories_segments":[],"categories_sizes":[],"default_left":[0,0,0],"id":33,"left_children":[1,-1,-1],"loss_changes":[7.284922E11,0E0,0E0],"parents":[2147483647,0,0],"right_children":[2,-1,-1],"split_conditions":[5E0,2.044229E2,-5.0939267E2],"split_indices":[1,0,0],"split_type":[0,0,0],"sum_hessian":[7.0024E4,5.0003E4,2.0021E4],"tree_param":{"num_deleted":"0","num_feature":"11","num_nodes":"3","size_leaf_vector":"1"}},{"base_weights":[-1.4303598E1,-1.1694036E2,7.303827E2],"categories":[],"categories_nodes":[],"categories_segments":[],"categories_sizes":[],"default_left":[0,0,0],"id":34,"left_children":[1,-1,-1],"loss_changes":[5.931085E11,0E0,0E0],"parents":[2147483647,0,0],"right_children":[2,-1,-1],"split_conditions":[9.0041E4,-1.1694036E2,7.303827E2],"split_indices":[10,0,0],"split_type":[0,0,0],"sum_hessian":[7.0162E4,6.0598E4,9.564E3],"tree_param":{"num_deleted":"0","num_feature":"11","num_nodes":"3","size_leaf_vector":"1"}},{"base_weights":[-1.6992805E1,1.8414471E2,-4.6672583E2],"categories":[],"categories_nodes":[],"categories_segments":[],"categories_sizes":[],"default_left":[0,0,0],"id":35,"left_children":[1,-1,-1],"loss_changes":[6.0752344E11,0E0,0E0],"parents":[2147483647,0,0],"right_children":[2,-1,-1],"split_conditions":[5E0,1.8414471E2,-4.6672583E2],"split_indices":[1,0,0],"split_type":[0,0,0],"sum_hessian":[7.0295E4,5.0224E4,2.0071E4],"tree_param":{"num_deleted":"0","num_feature":"11","num_nodes":"3","size_leaf_vector":"1"}},{"base_weights":[-1.6147305E1,1.4168593E2,-5.759028E2],"categories":[],"categories_nodes":[],"categories_segments":[],"categories_sizes":[],"default_left":[0,0,0],"id":36,"left_children":[1,-1,-1],"loss_changes":[5.7665526E11,0E0,0E0],"parents":[2147483647,0,0],"right_children":[2,-1,-1],"split_conditions":[2.023E3,1.4168593E2,-5.759028E2],"split_indices":[7,0,0],"split_type":[0,0,0],"sum_hessian":[7.0069E4,5.6077E4,1.3992E4],"tree_param":{"num_deleted":"0","num_feature":"11","num_nodes":"3","size_leaf_vector":"1"}},{"base_weights":[-4.7290983E0,7.87446E2,-1.02588844E2],"categories":[],"categories_nodes":[],"categories_segments":[],"categories_sizes":[],"default_left":[0,0,0],"id":37,"left_children":[1,-1,-1],"loss_changes":[5.623526E11,0E0,0E0],"parents":[2147483647,0,0],"right_children":[2,-1,-1],"split_conditions":[7E0,7.87446E2,-1.02588844E2],"split_indices":[3,0,0],"split_type":[0,0,0],"sum_hessian":[6.9891E4,8.018E3,6.1873E4],"tree_param":{"num_deleted":"0","num_feature":"11","num_nodes":"3","size_leaf_vector":"1"}},{"base_weights":[3.3299034E1,-8.367975E1,8.420771E2],"categories":[],"categories_nodes":[],"categories_segments":[],"categories_sizes":[],"default_left":[0,0,0],"id":38,"left_children":[1,-1,-1],"loss_changes":[5.1076586E11,0E0,0E0],"parents":[2147483647,0,0],"right_children":[2,-1,-1],"split_conditions":[9.5923E4,-8.367975E1,8.420771E2],"split_indices":[9,0,0],"split_type":[0,0,0],"sum_hessian":[6.9986E4,6.3409E4,6.577E3],"tree_param":{"num_deleted":"0","num_feature":"11","num_nodes":"3","size_leaf_vector":"1"}},{"base_weights":[5.985639E0,1.7079164E2,-4.2246347E2],"categories":[],"categories_nodes":[],"categories_segments":[],"categories_sizes":[],"default_left":[0,0,0],"id":39,"left_children":[1,-1,-1],"loss_changes":[5.0467802E11,0E0,0E0],"parents":[2147483647,0,0],"right_children":[2,-1,-1],"split_conditions":[5E0,1.7079164E2,-4.2246347E2],"split_indices":[1,0,0],"split_type":[0,0,0],"sum_hessian":[7.009E4,4.9983E4,2.0107E4],"tree_param":{"num_deleted":"0","num_feature":"11","num_nodes":"3","size_leaf_vector":"1"}},{"base_weights":[-3.0138218E1,1.682502E2,-4.0519138E2],"categories":[],"categories_nodes":[],"categories_segments":[],"categories_sizes":[],"default_left":[0,0,0],"id":40,"left_children":[1,-1,-1],"loss_changes":[4.8364438E11,0E0,0E0],"parents":[2147483647,0,0],"right_children":[2,-1,-1],"split_conditions":[2.022E3,1.682502E2,-4.0519138E2],"split_indices":[7,0,0],"split_type":[0,0,0],"sum_hessian":[7.0215E4,4.9245E4,2.097E4],"tree_param":{"num_deleted":"0","num_feature":"11","num_nodes":"3","size_leaf_vector":"1"}},{"base_weights":[-1.7897045E1,-3.7013043E2,1.7600546E2],"categories":[],"categories_nodes":[],"categories_segments":[],"categories_sizes":[],"default_left":[0,0,0],"id":41,"left_children":[1,-1,-1],"loss_changes":[4.5750747E11,0E0,0E0],"parents":[2147483647,0,0],"right_children":[2,-1,-1],"split_conditions":[3.1219E4,-3.7013043E2,1.7600546E2],"split_indices":[9,0,0],"split_type":[0,0,0],"sum_hessian":[6.9858E4,2.2742E4,4.7116E4],"tree_param":{"num_deleted":"0","num_feature":"11","num_nodes":"3","size_leaf_vector":"1"}},{"base_weights":[2.0138216E1,2.1157466E2,-2.767474E2],"categories":[],"categories_nodes":[],"categories_segments":[],"categories_sizes":[],"default_left":[0,0,0],"id":42,"left_children":[1,-1,-1],"loss_changes":[4.0901552E11,0E0,0E0],"parents":[2147483647,0,0],"right_children":[2,-1,-1],"split_conditions":[4E0,2.1157466E2,-2.767474E2],"split_indices":[1,0,0],"split_type":[0,0,0],"sum_hessian":[7.0014E4,3.9968E4,3.0046E4],"tree_param":{"num_deleted":"0","num_feature":"11","num_nodes":"3","size_leaf_vector":"1"}},{"base_weights":[-5.2897415E0,-8.886995E1,6.627918E2],"categories":[],"categories_nodes":[],"categories_segments":[],"categories_sizes":[],"default_left":[0,0,0],"id":43,"left_children":[1,-1,-1],"loss_changes":[4.0964388E11,0E0,0E0],"parents":[2147483647,0,0],"right_children":[2,-1,-1],"split_conditions":[9.3004E4,-8.886995E1,6.627918E2],"split_indices":[10,0,0],"split_type":[0,0,0],"sum_hessian":[6.9905E4,6.169E4,8.215E3],"tree_param":{"num_deleted":"0","num_feature":"11","num_nodes":"3","size_leaf_vector":"1"}},{"base_weights":[4.6097445E0,-6.851918E1,7.7874493E2],"categories":[],"categories_nodes":[],"categories_segments":[],"categories_sizes":[],"default_left":[0,0,0],"id":44,"left_children":[1,-1,-1],"loss_changes":[3.7480982E11,0E0,0E0],"parents":[2147483647,0,0],"right_children":[2,-1,-1],"split_conditions":[9.8168E4,-6.851918E1,7.7874493E2],"split_indices":[9,0,0],"split_type":[0,0,0],"sum_hessian":[6.9813E4,6.413E4,5.683E3],"tree_param":{"num_deleted":"0","num_feature":"11","num_nodes":"3","size_leaf_vector":"1"}},{"base_weights":[1.3842909E1,1.4680783E2,-3.624327E2],"categories":[],"categories_nodes":[],"categories_segments":[],"categories_sizes":[],"default_left":[0,0,0],"id":45,"left_children":[1,-1,-1],"loss_changes":[3.706333E11,0E0,0E0],"parents":[2147483647,0,0],"right_children":[2,-1,-1],"split_conditions":[5E0,1.4680783E2,-3.624327E2],"split_indices":[1,0,0],"split_type":[0,0,0],"sum_hessian":[7.0051E4,5.0047E4,2.0004E4],"tree_param":{"num_deleted":"0","num_feature":"11","num_nodes":"3","size_leaf_vector":"1"}},{"base_weights":[2.0309566E1,1.1948992E2,-4.678469E2],"categories":[],"categories_nodes":[],"categories_segments":[],"categories_sizes":[],"default_left":[0,0,0],"id":46,"left_children":[1,-1,-1],"loss_changes":[3.8694666E11,0E0,0E0],"parents":[2147483647,0,0],"right_children":[2,-1,-1],"split_conditions":[2.023E3,1.1948992E2,-4.678469E2],"split_indices":[7,0,0],"split_type":[0,0,0],"sum_hessian":[7.0108E4,5.6088E4,1.402E4],"tree_param":{"num_deleted":"0","num_feature":"11","num_nodes":"3","size_leaf_vector":"1"}},{"base_weights":[2.8868494E1,-3.2394608E2,1.5979391E2],"categories":[],"categories_nodes":[],"categories_segments":[],"categories_sizes":[],"default_left":[0,0,0],"id":47,"left_children":[1,-1,-1],"loss_changes":[3.595717E11,0E0,0E0],"parents":[2147483647,0,0],"right_children":[2,-1,-1],"split_conditions":[3.1402E4,-3.2394608E2,1.5979391E2],"split_indices":[10,0,0],"split_type":[0,0,0],"sum_hessian":[7.0114E4,2.2742E4,4.7372E4],"tree_param":{"num_deleted":"0","num_feature":"11","num_nodes":"3","size_leaf_vector":"1"}},{"base_weights":[-1.8682766E1,5.807389E2,-7.714747E1],"categories":[],"categories_nodes":[],"categories_segments":[],"categories_sizes":[],"default_left":[0,0,0],"id":48,"left_children":[1,-1,-1],"loss_changes":[3.066697E11,0E0,0E0],"parents":[2147483647,0,0],"right_children":[2,-1,-1],"split_conditions":[7E0,5.807389E2,-7.714747E1],"split_indices":[3,0,0],"split_type":[0,0,0],"sum_hessian":[6.9921E4,8E3,6.1921E4],"tree_param":{"num_deleted":"0","num_feature":"11","num_nodes":"3","size_leaf_vector":"1"}},{"base_weights":[-9.714983E-1,2.4264761E2,-1.8233954E2],"categories":[],"categories_nodes":[],"categories_segments":[],"categories_sizes":[],"default_left":[0,0,0],"id":49,"left_children":[1,-1,-1],"loss_changes":[3.0940768E11,0E0,0E0],"parents":[2147483647,0,0],"right_children":[2,-1,-1],"split_conditions":[3E0,2.4264761E2,-1.8233954E2],"split_indices":[1,0,0],"split_type":[0,0,0],"sum_hessian":[6.9939E4,2.9991E4,3.9948E4],"tree_param":{"num_deleted":"0","num_feature":"11","num_nodes":"3","size_leaf_vector":"1"}},{"base_weights":[-4.472945E0,1.409524E2,-3.3330734E2],"categories":[],"categories_nodes":[],"categories_segments":[],"categories_sizes":[],"default_left":[0,0,0],"id":50,"left_children":[1,-1,-1],"loss_changes":[3.288899E11,0E0,0E0],"parents":[2147483647,0,0],"right_children":[2,-1,-1],"split_conditions":[2.022E3,1.409524E2,-3.3330734E2],"split_indices":[7,0,0],"split_type":[0,0,0],"sum_hessian":[6.9876E4,4.9043E4,2.0833E4],"tree_param":{"num_deleted":"0","num_feature":"11","num_nodes":"3","size_leaf_vector":"1"}},{"base_weights":[-3.0983444E1,-7.164498E1,6.0205035E2],"categories":[],"categories_nodes":[],"categories_segments":[],"categories_sizes":[],"default_left":[0,0,0],"id":51,"left_children":[1,-1,-1],"loss_changes":[2.9129153E11,0E0,0E0],"parents":[2147483647,0,0],"right_children":[2,-1,-1],"split_conditions":[9.2328E4,-7.164498E1,6.0205035E2],"split_indices":[8,0,0],"split_type":[0,0,0],"sum_hessian":[7.0221E4,6.3077E4,7.144E3],"tree_param":{"num_deleted":"0","num_feature":"11","num_nodes":"3","size_leaf_vector":"1"}},{"base_weights":[9.371632E0,-3.1361877E2,1.2204684E2],"categories":[],"categories_nodes":[],"categories_segments":[],"categories_sizes":[],"default_left":[0,0,0],"id":52,"left_children":[1,-1,-1],"loss_changes":[2.6716183E11,0E0,0E0],"parents":[2147483647,0,0],"right_children":[2,-1,-1],"split_conditions":[2.934E4,-3.1361877E2,1.2204684E2],"split_indices":[10,0,0],"split_type":[0,0,0],"sum_hessian":[7.0127E4,1.9494E4,5.0633E4],"tree_param":{"num_deleted":"0","num_feature":"11","num_nodes":"3","size_leaf_vector":"1"}},{"base_weights":[-1.8870455E1,1.6567421E2,-2.2427086E2],"categories":[],"categories_nodes":[],"categories_segments":[],"categories_sizes":[],"default_left":[0,0,0],"id":53,"left_children":[1,-1,-1],"loss_changes":[2.6069875E11,0E0,0E0],"parents":[2147483647,0,0],"right_children":[2,-1,-1],"split_conditions":[4E0,1.6567421E2,-2.2427086E2],"split_indices":[1,0,0],"split_type":[0,0,0],"sum_hessian":[6.996E4,3.9898E4,3.0062E4],"tree_param":{"num_deleted":"0","num_feature":"11","num_nodes":"3","size_leaf_vector":"1"}},{"base_weights":[2.7834003E1,-4.945858E1,7.3562885E2],"categories":[],"categories_nodes":[],"categories_segments":[],"categories_sizes":[],"default_left":[0,0,0],"id":54,"left_children":[1,-1,-1],"loss_changes":[2.6793948E11,0E0,0E0],"parents":[2147483647,0,0],"right_children":[2,-1,-1],"split_conditions":[1.02515E5,-4.945858E1,7.3562885E2],"split_indices":[10,0,0],"split_type":[0,0,0],"sum_hessian":[6.9983E4,6.5327E4,4.656E3],"tree_param":{"num_deleted":"0","num_feature":"11","num_nodes":"3","size_leaf_vector":"1"}},{"base_weights":[-2.6540714E1,1.2166553E2,-2.9486133E2],"categories":[],"categories_nodes":[],"categories_segments":[],"categories_sizes":[],"default_left":[0,0,0],"id":55,"left_children":[1,-1,-1],"loss_changes":[2.5523043E11,0E0,0E0],"parents":[2147483647,0,0],"right_children":[2,-1,-1],"split_conditions":[2.022E3,1.2166553E2,-2.9486133E2],"split_indices":[7,0,0],"split_type":[0,0,0],"sum_hessian":[7.0257E4,4.9288E4,2.0969E4],"tree_param":{"num_deleted":"0","num_feature":"11","num_nodes":"3","size_leaf_vector":"1"}},{"base_weights":[-4.3283146E1,-3.280813E2,1.0134587E2],"categories":[],"categories_nodes":[],"categories_segments":[],"categories_sizes":[],"default_left":[0,0,0],"id":56,"left_children":[1,-1,-1],"loss_changes":[2.3967098E11,0E0,0E0],"parents":[2147483647,0,0],"right_children":[2,-1,-1],"split_conditions":[2.8074E4,-3.280813E2,1.0134587E2],"split_indices":[9,0,0],"split_type":[0,0,0],"sum_hessian":[7.0052E4,1.7238E4,5.2814E4],"tree_param":{"num_deleted":"0","num_feature":"11","num_nodes":"3","size_leaf_vector":"1"}},{"base_weights":[-2.1767801E1,1.0988997E2,-2.8316254E2],"categories":[],"categories_nodes":[],"categories_segments":[],"categories_sizes":[],"default_left":[0,0,0],"id":57,"left_children":[1,-1,-1],"loss_changes":[2.2064136E11,0E0,0E0],"parents":[2147483647,0,0],"right_children":[2,-1,-1],"split_conditions":[5E0,1.0988997E2,-2.8316254E2],"split_indices":[1,0,0],"split_type":[0,0,0],"sum_hessian":[7.0067E4,5.009E4,1.9977E4],"tree_param":{"num_deleted":"0","num_feature":"11","num_nodes":"3","size_leaf_vector":"1"}},{"base_weights":[-1.7329145E1,-5.4057045E1,6.1714844E2],"categories":[],"categories_nodes":[],"categories_segments":[],"categories_sizes":[],"default_left":[0,0,0],"id":58,"left_children":[1,-1,-1],"loss_changes":[2.265573E11,0E0,0E0],"parents":[2147483647,0,0],"right_children":[2,-1,-1],"split_conditions":[9.8952E4,-5.4057045E1,6.1714844E2],"split_indices":[9,0,0],"split_type":[0,0,0],"sum_hessian":[6.9961E4,6.4508E4,5.453E3],"tree_param":{"num_deleted":"0","num_feature":"11","num_nodes":"3","size_leaf_vector":"1"}},{"base_weights":[-2.0859364E1,8.663034E1,-3.583392E2],"categories":[],"categories_nodes":[],"categories_segments":[],"categories_sizes":[],"default_left":[0,0,0],"id":59,"left_children":[1,-1,-1],"loss_changes":[2.2083679E11,0E0,0E0],"parents":[2147483647,0,0],"right_children":[2,-1,-1],"split_conditions":[2.023E3,8.663034E1,-3.583392E2],"split_indices":[7,0,0],"split_type":[0,0,0],"sum_hessian":[6.9871E4,5.5941E4,1.393E4],"tree_param":{"num_deleted":"0","num_feature":"11","num_nodes":"3","size_leaf_vector":"1"}},{"base_weights":[2.7065298E1,2.0205025E2,-1.4644939E2],"categories":[],"categories_nodes":[],"categories_segments":[],"categories_sizes":[],"default_left":[0,0,0],"id":60,"left_children":[1,-1,-1],"loss_changes":[2.0830254E11,0E0,0E0],"parents":[2147483647,0,0],"right_children":[2,-1,-1],"split_conditions":[3E0,2.0205025E2,-1.4644939E2],"split_indices":[1,0,0],"split_type":[0,0,0],"sum_hessian":[7.0055E4,2.9983E4,4.0072E4],"tree_param":{"num_deleted":"0","num_feature":"11","num_nodes":"3","size_leaf_vector":"1"}},{"base_weights":[-4.1628757E0,-3.324657E2,8.4896324E1],"categories":[],"categories_nodes":[],"categories_segments":[],"categories_sizes":[],"default_left":[0,0,0],"id":61,"left_children":[1,-1,-1],"loss_changes":[1.9788525E11,0E0,0E0],"parents":[2147483647,0,0],"right_children":[2,-1,-1],"split_conditions":[2.6404E4,-3.324657E2,8.4896324E1],"split_indices":[9,0,0],"split_type":[0,0,0],"sum_hessian":[6.9853E4,1.4278E4,5.5575E4],"tree_param":{"num_deleted":"0","num_feature":"11","num_nodes":"3","size_leaf_vector":"1"}},{"base_weights":[5.703057E0,-4.688985E1,5.6149066E2],"categories":[],"categories_nodes":[],"categories_segments":[],"categories_sizes":[],"default_left":[0,0,0],"id":62,"left_children":[1,-1,-1],"loss_changes":[1.8622174E11,0E0,0E0],"parents":[2147483647,0,0],"right_children":[2,-1,-1],"split_conditions":[1.00026E5,-4.688985E1,5.6149066E2],"split_indices":[10,0,0],"split_type":[0,0,0],"sum_hessian":[6.995E4,6.4494E4,5.456E3],"tree_param":{"num_deleted":"0","num_feature":"11","num_nodes":"3","size_leaf_vector":"1"}},{"base_weights":[4.0459305E1,1.9116425E2,-1.3568689E2],"categories":[],"categories_nodes":[],"categories_segments":[],"categories_sizes":[],"default_left":[0,0,0],"id":63,"left_children":[1,-1,-1],"loss_changes":[1.8332665E11,0E0,0E0],"parents":[2147483647,0,0],"right_children":[2,-1,-1],"split_conditions":[3E0,1.9116425E2,-1.3568689E2],"split_indices":[1,0,0],"split_type":[0,0,0],"sum_hessian":[7.0113E4,2.9974E4,4.0139E4],"tree_param":{"num_deleted":"0","num_feature":"11","num_nodes":"3","size_leaf_vector":"1"}},{"base_weights":[-6.770621E0,2.5698627E2,-1.1099751E2],"categories":[],"categories_nodes":[],"categories_segments":[],"categories_sizes":[],"default_left":[0,0,0],"id":64,"left_children":[1,-1,-1],"loss_changes":[1.9890482E11,0E0,0E0],"parents":[2147483647,0,0],"right_children":[2,-1,-1],"split_conditions":[2.018E3,2.5698627E2,-1.1099751E2],"split_indices":[7,0,0],"split_type":[0,0,0],"sum_hessian":[6.9972E4,2.0977E4,4.8995E4],"tree_param":{"num_deleted":"0","num_feature":"11","num_nodes":"3","size_leaf_vector":"1"}},{"base_weights":[-1.544849E1,-4.7285152E1,5.4415985E2],"categories":[],"categories_nodes":[],"categories_segments":[],"categories_sizes":[],"default_left":[0,0,0],"id":65,"left_children":[1,-1,-1],"loss_changes":[1.7506191E11,0E0,0E0],"parents":[2147483647,0,0],"right_children":[2,-1,-1],"split_conditions":[9.8952E4,-4.7285152E1,5.4415985E2],"split_indices":[9,0,0],"split_type":[0,0,0],"sum_hessian":[7.0133E4,6.471E4,5.423E3],"tree_param":{"num_deleted":"0","num_feature":"11","num_nodes":"3","size_leaf_vector":"1"}},{"base_weights":[1.6525991E1,1.5984778E2,-1.5759235E2],"categories":[],"categories_nodes":[],"categories_segments":[],"categories_sizes":[],"default_left":[0,0,0],"id":66,"left_children":[1,-1,-1],"loss_changes":[1.759772E11,0E0,0E0],"parents":[2147483647,0,0],"right_children":[2,-1,-1],"split_conditions":[2.02E3,1.5984778E2,-1.5759235E2],"split_indices":[7,0,0],"split_type":[0,0,0],"sum_hessian":[6.9853E4,3.5042E4,3.4811E4],"tree_param":{"num_deleted":"0","num_feature":"11","num_nodes":"3","size_leaf_vector":"1"}},{"base_weights":[4.3765003E1,5.5148376E2,-4.16466E1],"categories":[],"categories_nodes":[],"categories_segments":[],"categories_sizes":[],"default_left":[0,0,0],"id":67,"left_children":[1,-1,-1],"loss_changes":[1.7653124E11,0E0,0E0],"parents":[2147483647,0,0],"right_children":[2,-1,-1],"split_conditions":[5E0,5.5148376E2,-4.16466E1],"split_indices":[3,0,0],"split_type":[0,0,0],"sum_hessian":[7.0107E4,5.439E3,6.4668E4],"tree_param":{"num_deleted":"0","num_feature":"11","num_nodes":"3","size_leaf_vector":"1"}},{"base_weights":[9.145748E0,2.3099251E2,-9.8108765E1],"categories":[],"categories_nodes":[],"categories_segments":[],"categories_sizes":[],"default_left":[0,0,0],"id":68,"left_children":[1,-1,-1],"loss_changes":[1.5971398E11,0E0,0E0],"parents":[2147483647,0,0],"right_children":[2,-1,-1],"split_conditions":[2.018E3,2.3099251E2,-9.8108765E1],"split_indices":[7,0,0],"split_type":[0,0,0],"sum_hessian":[7.01E4,2.1092E4,4.9008E4],"tree_param":{"num_deleted":"0","num_feature":"11","num_nodes":"3","size_leaf_vector":"1"}},{"base_weights":[-2.860216E1,-2.8996823E2,7.178843E1],"categories":[],"categories_nodes":[],"categories_segments":[],"categories_sizes":[],"default_left":[0,0,0],"id":69,"left_children":[1,-1,-1],"loss_changes":[1.4991619E11,0E0,0E0],"parents":[2147483647,0,0],"right_children":[2,-1,-1],"split_conditions":[2.6533E4,-2.8996823E2,7.178843E1],"split_indices":[10,0,0],"split_type":[0,0,0],"sum_hessian":[6.9947E4,1.4433E4,5.5514E4],"tree_param":{"num_deleted":"0","num_feature":"11","num_nodes":"3","size_leaf_vector":"1"}},{"base_weights":[9.531386E0,-3.2458722E2,6.5170906E1],"categories":[],"categories_nodes":[],"categories_segments":[],"categories_sizes":[],"default_left":[0,0,0],"id":70,"left_children":[1,-1,-1],"loss_changes":[1.4643449E11,0E0,0E0],"parents":[2147483647,0,0],"right_children":[2,-1,-1],"split_conditions":[2.4443E4,-3.2458722E2,6.5170906E1],"split_indices":[8,0,0],"split_type":[0,0,0],"sum_hessian":[7.0044E4,1.154E4,5.8504E4],"tree_param":{"num_deleted":"0","num_feature":"11","num_nodes":"3","size_leaf_vector":"1"}},{"base_weights":[1.9449898E1,-4.6214607E1,4.2596426E2],"categories":[],"categories_nodes":[],"categories_segments":[],"categories_sizes":[],"default_left":[0,0,0],"id":71,"left_children":[1,-1,-1],"loss_changes":[1.4345259E11,0E0,0E0],"parents":[2147483647,0,0],"right_children":[2,-1,-1],"split_conditions":[9.2328E4,-4.6214607E1,4.2596426E2],"split_indices":[8,0,0],"split_type":[0,0,0],"sum_hessian":[7.0247E4,6.3083E4,7.164E3],"tree_param":{"num_deleted":"0","num_feature":"11","num_nodes":"3","size_leaf_vector":"1"}},{"base_weights":[-1.1939357E1,6.6248604E1,-2.723928E2],"categories":[],"categories_nodes":[],"categories_segments":[],"categories_sizes":[],"default_left":[0,0,0],"id":72,"left_children":[1,-1,-1],"loss_changes":[1.2788601E11,0E0,0E0],"parents":[2147483647,0,0],"right_children":[2,-1,-1],"split_conditions":[2.023E3,6.6248604E1,-2.723928E2],"split_indices":[7,0,0],"split_type":[0,0,0],"sum_hessian":[6.9918E4,5.5994E4,1.3924E4],"tree_param":{"num_deleted":"0","num_feature":"11","num_nodes":"3","size_leaf_vector":"1"}},{"base_weights":[-3.7018135E1,8.9271034E1,-2.3614539E2],"categories":[],"categories_nodes":[],"categories_segments":[],"categories_sizes":[],"default_left":[0,0,0],"id":73,"left_children":[1,-1,-1],"loss_changes":[1.5124411E11,0E0,0E0],"parents":[2147483647,0,0],"right_children":[2,-1,-1],"split_conditions":[5E0,8.9271034E1,-2.3614539E2],"split_indices":[1,0,0],"split_type":[0,0,0],"sum_hessian":[6.9983E4,4.9989E4,1.9994E4],"tree_param":{"num_deleted":"0","num_feature":"11","num_nodes":"3","size_leaf_vector":"1"}},{"base_weights":[-6.0419855E0,1.6287712E2,-1.2315905E2],"categories":[],"categories_nodes":[],"categories_segments":[],"categories_sizes":[],"default_left":[0,0,0],"id":74,"left_children":[1,-1,-1],"loss_changes":[1.4039224E11,0E0,0E0],"parents":[2147483647,0,0],"right_children":[2,-1,-1],"split_conditions":[3E0,1.6287712E2,-1.2315905E2],"split_indices":[1,0,0],"split_type":[0,0,0],"sum_hessian":[7.007E4,3.0022E4,4.0048E4],"tree_param":{"num_deleted":"0","num_feature":"11","num_nodes":"3","size_leaf_vector":"1"}},{"base_weights":[2.7538643E1,-3.1707092E1,5.139798E2],"categories":[],"categories_nodes":[],"categories_segments":[],"categories_sizes":[],"default_left":[0,0,0],"id":75,"left_children":[1,-1,-1],"loss_changes":[1.237229E11,0E0,0E0],"parents":[2147483647,0,0],"right_children":[2,-1,-1],"split_conditions":[1.03429E5,-3.1707092E1,5.139798E2],"split_indices":[10,0,0],"split_type":[0,0,0],"sum_hessian":[7.0226E4,6.5792E4,4.434E3],"tree_param":{"num_deleted":"0","num_feature":"11","num_nodes":"3","size_leaf_vector":"1"}},{"base_weights":[-3.1394484E0,-2.920218E2,6.0073605E1],"categories":[],"categories_nodes":[],"categories_segments":[],"categories_sizes":[],"default_left":[0,0,0],"id":76,"left_children":[1,-1,-1],"loss_changes":[1.2319944E11,0E0,0E0],"parents":[2147483647,0,0],"right_children":[2,-1,-1],"split_conditions":[2.5171E4,-2.920218E2,6.0073605E1],"split_indices":[9,0,0],"split_type":[0,0,0],"sum_hessian":[6.9936E4,1.1994E4,5.7942E4],"tree_param":{"num_deleted":"0","num_feature":"11","num_nodes":"3","size_leaf_vector":"1"}},{"base_weights":[2.6657183E0,2.055867E2,-8.204827E1],"categories":[],"categories_nodes":[],"categories_segments":[],"categories_sizes":[],"default_left":[0,0,0],"id":77,"left_children":[1,-1,-1],"loss_changes":[1.1815583E11,0E0,0E0],"parents":[2147483647,0,0],"right_children":[2,-1,-1],"split_conditions":[2E0,2.055867E2,-8.204827E1],"split_indices":[1,0,0],"split_type":[0,0,0],"sum_hessian":[6.9909E4,2.0006E4,4.9903E4],"tree_param":{"num_deleted":"0","num_feature":"11","num_nodes":"3","size_leaf_vector":"1"}},{"base_weights":[2.6693977E1,4.375755E2,-3.34031E1],"categories":[],"categories_nodes":[],"categories_segments":[],"categories_sizes":[],"default_left":[0,0,0],"id":78,"left_children":[1,-1,-1],"loss_changes":[1.0956435E11,0E0,0E0],"parents":[2147483647,0,0],"right_children":[2,-1,-1],"split_conditions":[5E0,4.375755E2,-3.34031E1],"split_indices":[3,0,0],"split_type":[0,0,0],"sum_hessian":[6.9837E4,5.348E3,6.4489E4],"tree_param":{"num_deleted":"0","num_feature":"11","num_nodes":"3","size_leaf_vector":"1"}},{"base_weights":[6.1328876E-1,-2.952955E1,5.555249E2],"categories":[],"categories_nodes":[],"categories_segments":[],"categories_sizes":[],"default_left":[0,0,0],"id":79,"left_children":[1,-1,-1],"loss_changes":[1.1517166E11,0E0,0E0],"parents":[2147483647,0,0],"right_children":[2,-1,-1],"split_conditions":[1.05131E5,-2.952955E1,5.555249E2],"split_indices":[9,0,0],"split_type":[0,0,0],"sum_hessian":[7.0068E4,6.6525E4,3.543E3],"tree_param":{"num_deleted":"0","num_feature":"11","num_nodes":"3","size_leaf_vector":"1"}},{"base_weights":[-1.2001376E1,1.8797522E2,-8.254811E1],"categories":[],"categories_nodes":[],"categories_segments":[],"categories_sizes":[],"default_left":[0,0,0],"id":80,"left_children":[1,-1,-1],"loss_changes":[1.0768014E11,0E0,0E0],"parents":[2147483647,0,0],"right_children":[2,-1,-1],"split_conditions":[2.018E3,1.8797522E2,-8.254811E1],"split_indices":[7,0,0],"split_type":[0,0,0],"sum_hessian":[6.997E4,2.104E4,4.893E4],"tree_param":{"num_deleted":"0","num_feature":"11","num_nodes":"3","size_leaf_vector":"1"}},{"base_weights":[8.544419E0,6.1691647E1,-2.4384569E2],"categories":[],"categories_nodes":[],"categories_segments":[],"categories_sizes":[],"default_left":[0,0,0],"id":81,"left_children":[1,-1,-1],"loss_changes":[1.0468598E11,0E0,0E0],"parents":[2147483647,0,0],"right_children":[2,-1,-1],"split_conditions":[2.023E3,6.1691647E1,-2.4384569E2],"split_indices":[7,0,0],"split_type":[0,0,0],"sum_hessian":[7.0319E4,5.6318E4,1.4001E4],"tree_param":{"num_deleted":"0","num_feature":"11","num_nodes":"3","size_leaf_vector":"1"}},{"base_weights":[-3.6655848E0,7.761194E1,-1.9631703E2],"categories":[],"categories_nodes":[],"categories_segments":[],"categories_sizes":[],"default_left":[0,0,0],"id":82,"left_children":[1,-1,-1],"loss_changes":[1.0690749E11,0E0,0E0],"parents":[2147483647,0,0],"right_children":[2,-1,-1],"split_conditions":[5E0,7.761194E1,-1.9631703E2],"split_indices":[1,0,0],"split_type":[0,0,0],"sum_hessian":[6.9964E4,5.0048E4,1.9916E4],"tree_param":{"num_deleted":"0","num_feature":"11","num_nodes":"3","size_leaf_vector":"1"}},{"base_weights":[-3.352468E1,-3.394683E2,4.124114E1],"categories":[],"categories_nodes":[],"categories_segments":[],"categories_sizes":[],"default_left":[0,0,0],"id":83,"left_children":[1,-1,-1],"loss_changes":[1.0509558E11,0E0,0E0],"parents":[2147483647,0,0],"right_children":[2,-1,-1],"split_conditions":[2.3051E4,-3.394683E2,4.124114E1],"split_indices":[9,0,0],"split_type":[0,0,0],"sum_hessian":[7.0115E4,8.212E3,6.1903E4],"tree_param":{"num_deleted":"0","num_feature":"11","num_nodes":"3","size_leaf_vector":"1"}},{"base_weights":[2.5132584E1,1.390267E2,-9.9454544E1],"categories":[],"categories_nodes":[],"categories_segments":[],"categories_sizes":[],"default_left":[0,0,0],"id":84,"left_children":[1,-1,-1],"loss_changes":[9.743982E10,0E0,0E0],"parents":[2147483647,0,0],"right_children":[2,-1,-1],"split_conditions":[3E0,1.390267E2,-9.9454544E1],"split_indices":[1,0,0],"split_type":[0,0,0],"sum_hessian":[6.9998E4,2.9929E4,4.0069E4],"tree_param":{"num_deleted":"0","num_feature":"11","num_nodes":"3","size_leaf_vector":"1"}},{"base_weights":[-2.5658363E1,-1.546922E1,1.0680156E3],"categories":[],"categories_nodes":[],"categories_segments":[],"categories_sizes":[],"default_left":[0,0,0],"id":85,"left_children":[1,-1,-1],"loss_changes":[9.6740565E10,0E0,0E0],"parents":[2147483647,0,0],"right_children":[2,-1,-1],"split_conditions":[1.24976E5,-1.546922E1,1.0680156E3],"split_indices":[10,0,0],"split_type":[0,0,0],"sum_hessian":[7.0028E4,6.9195E4,8.33E2],"tree_param":{"num_deleted":"0","num_feature":"11","num_nodes":"3","size_leaf_vector":"1"}},{"base_weights":[-1.5039915E0,1.1358034E2,-1.1410203E2],"categories":[],"categories_nodes":[],"categories_segments":[],"categories_sizes":[],"default_left":[0,0,0],"id":86,"left_children":[1,-1,-1],"loss_changes":[9.083266E10,0E0,0E0],"parents":[2147483647,0,0],"right_children":[2,-1,-1],"split_conditions":[2.02E3,1.1358034E2,-1.1410203E2],"split_indices":[7,0,0],"split_type":[0,0,0],"sum_hessian":[7.0086E4,3.5077E4,3.5009E4],"tree_param":{"num_deleted":"0","num_feature":"11","num_nodes":"3","size_leaf_vector":"1"}},{"base_weights":[1.1651713E1,-2.6195114E2,5.3078014E1],"categories":[],"categories_nodes":[],"categories_segments":[],"categories_sizes":[],"default_left":[0,0,0],"id":87,"left_children":[1,-1,-1],"loss_changes":[9.570397E10,0E0,0E0],"parents":[2147483647,0,0],"right_children":[2,-1,-1],"split_conditions":[2.48E4,-2.6195114E2,5.3078014E1],"split_indices":[10,0,0],"split_type":[0,0,0],"sum_hessian":[7.0064E4,1.1545E4,5.8519E4],"tree_param":{"num_deleted":"0","num_feature":"11","num_nodes":"3","size_leaf_vector":"1"}},{"base_weights":[2.2661713E1,-2.007575E1,5.496832E2],"categories":[],"categories_nodes":[],"categories_segments":[],"categories_sizes":[],"default_left":[0,0,0],"id":88,"left_children":[1,-1,-1],"loss_changes":[8.55842E10,0E0,0E0],"parents":[2147483647,0,0],"right_children":[2,-1,-1],"split_conditions":[1.08475E5,-2.007575E1,5.496832E2],"split_indices":[9,0,0],"split_type":[0,0,0],"sum_hessian":[6.9975E4,6.7232E4,2.743E3],"tree_param":{"num_deleted":"0","num_feature":"11","num_nodes":"3","size_leaf_vector":"1"}},{"base_weights":[2.5161579E0,1.7685579E2,-6.988863E1],"categories":[],"categories_nodes":[],"categories_segments":[],"categories_sizes":[],"default_left":[0,0,0],"id":89,"left_children":[1,-1,-1],"loss_changes":[8.692124E10,0E0,0E0],"parents":[2147483647,0,0],"right_children":[2,-1,-1],"split_conditions":[2E0,1.7685579E2,-6.988863E1],"split_indices":[1,0,0],"split_type":[0,0,0],"sum_hessian":[7.0169E4,1.9946E4,5.0223E4],"tree_param":{"num_deleted":"0","num_feature":"11","num_nodes":"3","size_leaf_vector":"1"}},{"base_weights":[1.8030666E1,-1.866939E2,6.496817E1],"categories":[],"categories_nodes":[],"categories_segments":[],"categories_sizes":[],"default_left":[0,0,0],"id":90,"left_children":[1,-1,-1],"loss_changes":[8.342838E10,0E0,0E0],"parents":[2147483647,0,0],"right_children":[2,-1,-1],"split_conditions":[6E0,-1.866939E2,6.496817E1],"split_indices":[0,0,0],"split_type":[0,0,0],"sum_hessian":[7.0068E4,1.7586E4,5.2482E4],"tree_param":{"num_deleted":"0","num_feature":"11","num_nodes":"3","size_leaf_vector":"1"}},{"base_weights":[-8.941952E0,-2.61186E2,4.4793167E1],"categories":[],"categories_nodes":[],"categories_segments":[],"categories_sizes":[],"default_left":[0,0,0],"id":91,"left_children":[1,-1,-1],"loss_changes":[8.31004E10,0E0,0E0],"parents":[2147483647,0,0],"right_children":[2,-1,-1],"split_conditions":[2.4274E4,-2.61186E2,4.4793167E1],"split_indices":[9,0,0],"split_type":[0,0,0],"sum_hessian":[6.9877E4,1.0433E4,5.9444E4],"tree_param":{"num_deleted":"0","num_feature":"11","num_nodes":"3","size_leaf_vector":"1"}},{"base_weights":[2.5943214E1,3.580585E2,-2.7011652E1],"categories":[],"categories_nodes":[],"categories_segments":[],"categories_sizes":[],"default_left":[0,0,0],"id":92,"left_children":[1,-1,-1],"loss_changes":[7.350385E10,0E0,0E0],"parents":[2147483647,0,0],"right_children":[2,-1,-1],"split_conditions":[5E0,3.580585E2,-2.7011652E1],"split_indices":[3,0,0],"split_type":[0,0,0],"sum_hessian":[6.9843E4,5.369E3,6.4474E4],"tree_param":{"num_deleted":"0","num_feature":"11","num_nodes":"3","size_leaf_vector":"1"}},{"base_weights":[-1.729849E1,1.5557475E2,-6.9589485E1],"categories":[],"categories_nodes":[],"categories_segments":[],"categories_sizes":[],"default_left":[0,0,0],"id":93,"left_children":[1,-1,-1],"loss_changes":[7.433816E10,0E0,0E0],"parents":[2147483647,0,0],"right_children":[2,-1,-1],"split_conditions":[2.018E3,1.5557475E2,-6.9589485E1],"split_indices":[7,0,0],"split_type":[0,0,0],"sum_hessian":[6.9638E4,2.0987E4,4.8651E4],"tree_param":{"num_deleted":"0","num_feature":"11","num_nodes":"3","size_leaf_vector":"1"}},{"base_weights":[-3.1468884E1,-3.8651997E1,2.7846164E2],"categories":[],"categories_nodes":[],"categories_segments":[],"categories_sizes":[],"default_left":[0,0,0],"id":94,"left_children":[1,-1,-1],"loss_changes":[7.011983E10,0E0,0E0],"parents":[2147483647,0,0],"right_children":[2,-1,-1],"split_conditions":[3.25E2,-3.8651997E1,2.7846164E2],"split_indices":[4,0,0],"split_type":[0,0,0],"sum_hessian":[7.0128E4,6.2277E4,7.851E3],"tree_param":{"num_deleted":"0","num_feature":"11","num_nodes":"3","size_leaf_vector":"1"}},{"base_weights":[5.0105033E0,6.652732E1,-1.6448694E2],"categories":[],"categories_nodes":[],"categories_segments":[],"categories_sizes":[],"default_left":[0,0,0],"id":95,"left_children":[1,-1,-1],"loss_changes":[7.610337E10,0E0,0E0],"parents":[2147483647,0,0],"right_children":[2,-1,-1],"split_conditions":[5E0,6.652732E1,-1.6448694E2],"split_indices":[1,0,0],"split_type":[0,0,0],"sum_hessian":[6.9859E4,4.9893E4,1.9966E4],"tree_param":{"num_deleted":"0","num_feature":"11","num_nodes":"3","size_leaf_vector":"1"}},{"base_weights":[9.287663E0,-2.070662E1,4.754249E2],"categories":[],"categories_nodes":[],"categories_segments":[],"categories_sizes":[],"default_left":[0,0,0],"id":96,"left_children":[1,-1,-1],"loss_changes":[7.182435E10,0E0,0E0],"parents":[2147483647,0,0],"right_children":[2,-1,-1],"split_conditions":[1.08798E5,-2.070662E1,4.754249E2],"split_indices":[10,0,0],"split_type":[0,0,0],"sum_hessian":[6.9962E4,6.6912E4,3.05E3],"tree_param":{"num_deleted":"0","num_feature":"11","num_nodes":"3","size_leaf_vector":"1"}},{"base_weights":[-2.0433224E1,-3.0921396E2,2.9648687E1],"categories":[],"categories_nodes":[],"categories_segments":[],"categories_sizes":[],"default_left":[0,0,0],"id":97,"left_children":[1,-1,-1],"loss_changes":[6.828217E10,0E0,0E0],"parents":[2147483647,0,0],"right_children":[2,-1,-1],"split_conditions":[2.2099E4,-3.0921396E2,2.9648687E1],"split_indices":[9,0,0],"split_type":[0,0,0],"sum_hessian":[7.014E4,6.559E3,6.3581E4],"tree_param":{"num_deleted":"0","num_feature":"11","num_nodes":"3","size_leaf_vector":"1"}},{"base_weights":[3.1433926E0,1.59817E2,-6.3391186E1],"categories":[],"categories_nodes":[],"categories_segments":[],"categories_sizes":[],"default_left":[0,0,0],"id":98,"left_children":[1,-1,-1],"loss_changes":[7.121883E10,0E0,0E0],"parents":[2147483647,0,0],"right_children":[2,-1,-1],"split_conditions":[2E0,1.59817E2,-6.3391186E1],"split_indices":[1,0,0],"split_type":[0,0,0],"sum_hessian":[7.0087E4,2.0003E4,5.0084E4],"tree_param":{"num_deleted":"0","num_feature":"11","num_nodes":"3","size_leaf_vector":"1"}},{"base_weights":[1.3158766E0,9.563387E1,-9.5652214E1],"categories":[],"categories_nodes":[],"categories_segments":[],"categories_sizes":[],"default_left":[0,0,0],"id":99,"left_children":[1,-1,-1],"loss_changes":[6.402111E10,0E0,0E0],"parents":[2147483647,0,0],"right_children":[2,-1,-1],"split_conditions":[2.02E3,9.563387E1,-9.5652214E1],"split_indices":[7,0,0],"split_type":[0,0,0],"sum_hessian":[6.9985E4,3.5044E4,3.4941E4],"tree_param":{"num_deleted":"0","num_feature":"11","num_nodes":"3","size_leaf_vector":"1"}},{"base_weights":[1.5851128E1,-1.8091425E2,5.0040382E1],"categories":[],"categories_nodes":[],"categories_segments":[],"categories_sizes":[],"default_left":[0,0,0],"id":100,"left_children":[1,-1,-1],"loss_changes":[6.201814E10,0E0,0E0],"parents":[2147483647,0,0],"right_children":[2,-1,-1],"split_conditions":[5E0,-1.8091425E2,5.0040382E1],"split_indices":[0,0,0],"split_type":[0,0,0],"sum_hessian":[7.013E4,1.4713E4,5.5417E4],"tree_param":{"num_deleted":"0","num_feature":"11","num_nodes":"3","size_leaf_vector":"1"}},{"base_weights":[3.916185E1,3.309217E2,-2.3611843E1],"categories":[],"categories_nodes":[],"categories_segments":[],"categories_sizes":[],"default_left":[0,0,0],"id":101,"left_children":[1,-1,-1],"loss_changes":[6.2963986E10,0E0,0E0],"parents":[2147483647,0,0],"right_children":[2,-1,-1],"split_conditions":[5E0,3.309217E2,-2.3611843E1],"split_indices":[3,0,0],"split_type":[0,0,0],"sum_hessian":[6.9944E4,5.43E3,6.4514E4],"tree_param":{"num_deleted":"0","num_feature":"11","num_nodes":"3","size_leaf_vector":"1"}},{"base_weights":[9.950989E0,-1.7068392E1,4.9394287E2],"categories":[],"categories_nodes":[],"categories_segments":[],"categories_sizes":[],"default_left":[0,0,0],"id":102,"left_children":[1,-1,-1],"loss_changes":[6.242128E10,0E0,0E0],"parents":[2147483647,0,0],"right_children":[2,-1,-1],"split_conditions":[1.09724E5,-1.7068392E1,4.9394287E2],"split_indices":[9,0,0],"split_type":[0,0,0],"sum_hessian":[7.01E4,6.7623E4,2.477E3],"tree_param":{"num_deleted":"0","num_feature":"11","num_nodes":"3","size_leaf_vector":"1"}},{"base_weights":[-1.5788021E1,4.4322445E1,-1.8478453E2],"categories":[],"categories_nodes":[],"categories_segments":[],"categories_sizes":[],"default_left":[0,0,0],"id":103,"left_children":[1,-1,-1],"loss_changes":[5.8884923E10,0E0,0E0],"parents":[2147483647,0,0],"right_children":[2,-1,-1],"split_conditions":[2.023E3,4.4322445E1,-1.8478453E2],"split_indices":[7,0,0],"split_type":[0,0,0],"sum_hessian":[7.0021E4,5.5993E4,1.4028E4],"tree_param":{"num_deleted":"0","num_feature":"11","num_nodes":"3","size_leaf_vector":"1"}},{"base_weights":[-3.3008762E1,7.847246E1,-1.1153234E2],"categories":[],"categories_nodes":[],"categories_segments":[],"categories_sizes":[],"default_left":[0,0,0],"id":104,"left_children":[1,-1,-1],"loss_changes":[6.2045164E10,0E0,0E0],"parents":[2147483647,0,0],"right_children":[2,-1,-1],"split_conditions":[4E0,7.847246E1,-1.1153234E2],"split_indices":[1,0,0],"split_type":[0,0,0],"sum_hessian":[7.0102E4,3.9932E4,3.017E4],"tree_param":{"num_deleted":"0","num_feature":"11","num_nodes":"3","size_leaf_vector":"1"}},{"base_weights":[3.4732475E1,-6.891328E0,8.63505E2],"categories":[],"categories_nodes":[],"categories_segments":[],"categories_sizes":[],"default_left":[0,0,0],"id":105,"left_children":[1,-1,-1],"loss_changes":[6.2355755E10,0E0,0E0],"parents":[2147483647,0,0],"right_children":[2,-1,-1],"split_conditions":[1.24976E5,-6.891328E0,8.63505E2],"split_indices":[10,0,0],"split_type":[0,0,0],"sum_hessian":[6.9952E4,6.912E4,8.32E2],"tree_param":{"num_deleted":"0","num_feature":"11","num_nodes":"3","size_leaf_vector":"1"}},{"base_weights":[-2.795876E1,-2.64353E2,2.8213928E1],"categories":[],"categories_nodes":[],"categories_segments":[],"categories_sizes":[],"default_left":[0,0,0],"id":106,"left_children":[1,-1,-1],"loss_changes":[5.6634655E10,0E0,0E0],"parents":[2147483647,0,0],"right_children":[2,-1,-1],"split_conditions":[2.2571E4,-2.64353E2,2.8213928E1],"split_indices":[9,0,0],"split_type":[0,0,0],"sum_hessian":[6.9824E4,7.4E3,6.2424E4],"tree_param":{"num_deleted":"0","num_feature":"11","num_nodes":"3","size_leaf_vector":"1"}},{"base_weights":[-1.8402773E1,1.3294708E2,-5.962386E1],"categories":[],"categories_nodes":[],"categories_segments":[],"categories_sizes":[],"default_left":[0,0,0],"id":107,"left_children":[1,-1,-1],"loss_changes":[5.4764823E10,0E0,0E0],"parents":[2147483647,0,0],"right_children":[2,-1,-1],"split_conditions":[2.018E3,1.3294708E2,-5.962386E1],"split_indices":[7,0,0],"split_type":[0,0,0],"sum_hessian":[7.0313E4,2.1098E4,4.9215E4],"tree_param":{"num_deleted":"0","num_feature":"11","num_nodes":"3","size_leaf_vector":"1"}},{"base_weights":[-2.4653492E1,1.3812857E2,-5.8743908E1],"categories":[],"categories_nodes":[],"categories_segments":[],"categories_sizes":[],"default_left":[0,0,0],"id":108,"left_children":[1,-1,-1],"loss_changes":[5.5410725E10,0E0,0E0],"parents":[2147483647,0,0],"right_children":[2,-1,-1],"split_conditions":[2E0,1.3812857E2,-5.8743908E1],"split_indices":[1,0,0],"split_type":[0,0,0],"sum_hessian":[7.0028E4,2.0018E4,5.001E4],"tree_param":{"num_deleted":"0","num_feature":"11","num_nodes":"3","size_leaf_vector":"1"}},{"base_weights":[-1.19059E1,5.365962E1,-1.3845035E2],"categories":[],"categories_nodes":[],"categories_segments":[],"categories_sizes":[],"default_left":[0,0,0],"id":109,"left_children":[1,-1,-1],"loss_changes":[5.2774855E10,0E0,0E0],"parents":[2147483647,0,0],"right_children":[2,-1,-1],"split_conditions":[5E0,5.365962E1,-1.3845035E2],"split_indices":[1,0,0],"split_type":[0,0,0],"sum_hessian":[7.0096E4,5.0083E4,2.0013E4],"tree_param":{"num_deleted":"0","num_feature":"11","num_nodes":"3","size_leaf_vector":"1"}},{"base_weights":[-1.5175106E1,-3.271622E1,2.4839774E2],"categories":[],"categories_nodes":[],"categories_segments":[],"categories_sizes":[],"default_left":[0,0,0],"id":110,"left_children":[1,-1,-1],"loss_changes":[5.456678E10,0E0,0E0],"parents":[2147483647,0,0],"right_children":[2,-1,-1],"split_conditions":[3.25E2,-3.271622E1,2.4839774E2],"split_indices":[4,0,0],"split_type":[0,0,0],"sum_hessian":[6.9982E4,6.2216E4,7.766E3],"tree_param":{"num_deleted":"0","num_feature":"11","num_nodes":"3","size_leaf_vector":"1"}},{"base_weights":[9.96397E0,-2.7868204E2,2.7429926E1],"categories":[],"categories_nodes":[],"categories_segments":[],"categories_sizes":[],"default_left":[0,0,0],"id":111,"left_children":[1,-1,-1],"loss_changes":[5.172732E10,0E0,0E0],"parents":[2147483647,0,0],"right_children":[2,-1,-1],"split_conditions":[2.1426E4,-2.7868204E2,2.7429926E1],"split_indices":[8,0,0],"split_type":[0,0,0],"sum_hessian":[6.9967E4,6.041E3,6.3926E4],"tree_param":{"num_deleted":"0","num_feature":"11","num_nodes":"3","size_leaf_vector":"1"}},{"base_weights":[6.32228E-1,-2.8330368E2,2.291934E1],"categories":[],"categories_nodes":[],"categories_segments":[],"categories_sizes":[],"default_left":[0,0,0],"id":112,"left_children":[1,-1,-1],"loss_changes":[4.536516E10,0E0,0E0],"parents":[2147483647,0,0],"right_children":[2,-1,-1],"split_conditions":[2.1283E4,-2.8330368E2,2.291934E1],"split_indices":[9,0,0],"split_type":[0,0,0],"sum_hessian":[7.0042E4,5.227E3,6.4815E4],"tree_param":{"num_deleted":"0","num_feature":"11","num_nodes":"3","size_leaf_vector":"1"}},{"base_weights":[-1.6965628E1,-1.23800125E1,6.579122E2],"categories":[],"categories_nodes":[],"categories_segments":[],"categories_sizes":[],"default_left":[0,0,0],"id":113,"left_children":[1,-1,-1],"loss_changes":[4.9341768E10,0E0,0E0],"parents":[2147483647,0,0],"right_children":[2,-1,-1],"split_conditions":[1.21568E5,-1.23800125E1,6.579122E2],"split_indices":[10,0,0],"split_type":[0,0,0],"sum_hessian":[7.0017E4,6.8902E4,1.115E3],"tree_param":{"num_deleted":"0","num_feature":"11","num_nodes":"3","size_leaf_vector":"1"}},{"base_weights":[-2.5075891E1,-2.6675241E1,2.981082E2],"categories":[],"categories_nodes":[],"categories_segments":[],"categories_sizes":[],"default_left":[0,0,0],"id":114,"left_children":[1,-1,-1],"loss_changes":[5.0848313E10,0E0,0E0],"parents":[2147483647,0,0],"right_children":[2,-1,-1],"split_conditions":[9.7372E4,-2.6675241E1,2.981082E2],"split_indices":[8,0,0],"split_type":[0,0,0],"sum_hessian":[6.9987E4,6.478E4,5.207E3],"tree_param":{"num_deleted":"0","num_feature":"11","num_nodes":"3","size_leaf_vector":"1"}},{"base_weights":[-1.7593248E1,-1.4372563E1,5.2049976E2],"categories":[],"categories_nodes":[],"categories_segments":[],"categories_sizes":[],"default_left":[0,0,0],"id":115,"left_children":[1,-1,-1],"loss_changes":[4.628696E10,0E0,0E0],"parents":[2147483647,0,0],"right_children":[2,-1,-1],"split_conditions":[1.14393E5,-1.4372563E1,5.2049976E2],"split_indices":[9,0,0],"split_type":[0,0,0],"sum_hessian":[7.0264E4,6.8608E4,1.656E3],"tree_param":{"num_deleted":"0","num_feature":"11","num_nodes":"3","size_leaf_vector":"1"}},{"base_weights":[3.358738E1,1.2611239E2,-4.5549164E1],"categories":[],"categories_nodes":[],"categories_segments":[],"categories_sizes":[],"default_left":[0,0,0],"id":116,"left_children":[1,-1,-1],"loss_changes":[4.194189E10,0E0,0E0],"parents":[2147483647,0,0],"right_children":[2,-1,-1],"split_conditions":[2E0,1.2611239E2,-4.5549164E1],"split_indices":[1,0,0],"split_type":[0,0,0],"sum_hessian":[6.9859E4,1.9903E4,4.9956E4],"tree_param":{"num_deleted":"0","num_feature":"11","num_nodes":"3","size_leaf_vector":"1"}},{"base_weights":[-2.7575169E1,3.6779583E1,-1.6049179E2],"categories":[],"categories_nodes":[],"categories_segments":[],"categories_sizes":[],"default_left":[0,0,0],"id":117,"left_children":[1,-1,-1],"loss_changes":[4.3690623E10,0E0,0E0],"parents":[2147483647,0,0],"right_children":[2,-1,-1],"split_conditions":[2.023E3,3.6779583E1,-1.6049179E2],"split_indices":[7,0,0],"split_type":[0,0,0],"sum_hessian":[7.0056E4,5.6016E4,1.404E4],"tree_param":{"num_deleted":"0","num_feature":"11","num_nodes":"3","size_leaf_vector":"1"}},{"base_weights":[1.4269966E1,-1.3796172E2,4.810393E1],"categories":[],"categories_nodes":[],"categories_segments":[],"categories_sizes":[],"default_left":[0,0,0],"id":118,"left_children":[1,-1,-1],"loss_changes":[4.5620445E10,0E0,0E0],"parents":[2147483647,0,0],"right_children":[2,-1,-1],"split_conditions":[6E0,-1.3796172E2,4.810393E1],"split_indices":[0,0,0],"split_type":[0,0,0],"sum_hessian":[7.0116E4,1.7589E4,5.2527E4],"tree_param":{"num_deleted":"0","num_feature":"11","num_nodes":"3","size_leaf_vector":"1"}},{"base_weights":[1.7219748E1,-2.3525174E2,2.6310148E1],"categories":[],"categories_nodes":[],"categories_segments":[],"categories_sizes":[],"default_left":[0,0,0],"id":119,"left_children":[1,-1,-1],"loss_changes":[4.0871776E10,0E0,0E0],"parents":[2147483647,0,0],"right_children":[2,-1,-1],"split_conditions":[2.1997E4,-2.3525174E2,2.6310148E1],"split_indices":[10,0,0],"split_type":[0,0,0],"sum_hessian":[7.0143E4,6.593E3,6.355E4],"tree_param":{"num_deleted":"0","num_feature":"11","num_nodes":"3","size_leaf_vector":"1"}},{"base_weights":[8.095448E0,-2.562067E1,2.1181602E2],"categories":[],"categories_nodes":[],"categories_segments":[],"categories_sizes":[],"default_left":[0,0,0],"id":120,"left_children":[1,-1,-1],"loss_changes":[3.9253885E10,0E0,0E0],"parents":[2147483647,0,0],"right_children":[2,-1,-1],"split_conditions":[3.25E2,-2.562067E1,2.1181602E2],"split_indices":[4,0,0],"split_type":[0,0,0],"sum_hessian":[7.0384E4,6.255E4,7.834E3],"tree_param":{"num_deleted":"0","num_feature":"11","num_nodes":"3","size_leaf_vector":"1"}},{"base_weights":[2.9077374E1,9.046093E1,-6.2564632E1],"categories":[],"categories_nodes":[],"categories_segments":[],"categories_sizes":[],"default_left":[0,0,0],"id":121,"left_children":[1,-1,-1],"loss_changes":[4.019498E10,0E0,0E0],"parents":[2147483647,0,0],"right_children":[2,-1,-1],"split_conditions":[3E0,9.046093E1,-6.2564632E1],"split_indices":[1,0,0],"split_type":[0,0,0],"sum_hessian":[7.0118E4,3E4,4.0118E4],"tree_param":{"num_deleted":"0","num_feature":"11","num_nodes":"3","size_leaf_vector":"1"}},{"base_weights":[-1.4973429E1,-2.2593452E2,2.3486805E1],"categories":[],"categories_nodes":[],"categories_segments":[],"categories_sizes":[],"default_left":[0,0,0],"id":122,"left_children":[1,-1,-1],"loss_changes":[3.9297552E10,0E0,0E0],"parents":[2147483647,0,0],"right_children":[2,-1,-1],"split_conditions":[2.016E3,-2.2593452E2,2.3486805E1],"split_indices":[7,0,0],"split_type":[0,0,0],"sum_hessian":[7.008E4,7.019E3,6.3061E4],"tree_param":{"num_deleted":"0","num_feature":"11","num_nodes":"3","size_leaf_vector":"1"}},{"base_weights":[1.6034294E1,1.1372257E2,-4.6644005E1],"categories":[],"categories_nodes":[],"categories_segments":[],"categories_sizes":[],"default_left":[0,0,0],"id":123,"left_children":[1,-1,-1],"loss_changes":[3.7871624E10,0E0,0E0],"parents":[2147483647,0,0],"right_children":[2,-1,-1],"split_conditions":[2.018E3,1.1372257E2,-4.6644005E1],"split_indices":[7,0,0],"split_type":[0,0,0],"sum_hessian":[7.0008E4,2.1062E4,4.8946E4],"tree_param":{"num_deleted":"0","num_feature":"11","num_nodes":"3","size_leaf_vector":"1"}},{"base_weights":[6.7801356E0,2.565053E2,-2.0818256E1],"categories":[],"categories_nodes":[],"categories_segments":[],"categories_sizes":[],"default_left":[0,0,0],"id":124,"left_children":[1,-1,-1],"loss_changes":[3.848871E10,0E0,0E0],"parents":[2147483647,0,0],"right_children":[2,-1,-1],"split_conditions":[5E0,2.565053E2,-2.0818256E1],"split_indices":[3,0,0],"split_type":[0,0,0],"sum_hessian":[6.9986E4,5.424E3,6.4562E4],"tree_param":{"num_deleted":"0","num_feature":"11","num_nodes":"3","size_leaf_vector":"1"}},{"base_weights":[-1.3316174E-1,-1.4365766E1,3.4921405E2],"categories":[],"categories_nodes":[],"categories_segments":[],"categories_sizes":[],"default_left":[0,0,0],"id":125,"left_children":[1,-1,-1],"loss_changes":[3.5196645E10,0E0,0E0],"parents":[2147483647,0,0],"right_children":[2,-1,-1],"split_conditions":[1.10054E5,-1.4365766E1,3.4921405E2],"split_indices":[10,0,0],"split_type":[0,0,0],"sum_hessian":[7.0219E4,6.7448E4,2.771E3],"tree_param":{"num_deleted":"0","num_feature":"11","num_nodes":"3","size_leaf_vector":"1"}},{"base_weights":[-1.7970469E1,-2.2028087E2,2.2329964E1],"categories":[],"categories_nodes":[],"categories_segments":[],"categories_sizes":[],"default_left":[0,0,0],"id":126,"left_children":[1,-1,-1],"loss_changes":[3.690846E10,0E0,0E0],"parents":[2147483647,0,0],"right_children":[2,-1,-1],"split_conditions":[2.016E3,-2.2028087E2,2.2329964E1],"split_indices":[7,0,0],"split_type":[0,0,0],"sum_hessian":[7.0015E4,6.962E3,6.3053E4],"tree_param":{"num_deleted":"0","num_feature":"11","num_nodes":"3","size_leaf_vector":"1"}},{"base_weights":[1.1737681E1,-6.9012885E0,6.818349E2],"categories":[],"categories_nodes":[],"categories_segments":[],"categories_sizes":[],"default_left":[0,0,0],"id":127,"left_children":[1,-1,-1],"loss_changes":[3.853503E10,0E0,0E0],"parents":[2147483647,0,0],"right_children":[2,-1,-1],"split_conditions":[1.24976E5,-6.9012885E0,6.818349E2],"split_indices":[10,0,0],"split_type":[0,0,0],"sum_hessian":[7.0108E4,6.9287E4,8.21E2],"tree_param":{"num_deleted":"0","num_feature":"11","num_nodes":"3","size_leaf_vector":"1"}},{"base_weights":[-9.399412E0,1.0870784E2,-4.826287E1],"categories":[],"categories_nodes":[],"categories_segments":[],"categories_sizes":[],"default_left":[0,0,0],"id":128,"left_children":[1,-1,-1],"loss_changes":[3.6273205E10,0E0,0E0],"parents":[2147483647,0,0],"right_children":[2,-1,-1],"split_conditions":[2.018E3,1.0870784E2,-4.826287E1],"split_indices":[7,0,0],"split_type":[0,0,0],"sum_hessian":[6.9904E4,2.1074E4,4.883E4],"tree_param":{"num_deleted":"0","num_feature":"11","num_nodes":"3","size_leaf_vector":"1"}},{"base_weights":[-1.2608624E1,-3.2828857E2,1.3371332E1],"categories":[],"categories_nodes":[],"categories_segments":[],"categories_sizes":[],"default_left":[0,0,0],"id":129,"left_children":[1,-1,-1],"loss_changes":[3.349733E10,0E0,0E0],"parents":[2147483647,0,0],"right_children":[2,-1,-1],"split_conditions":[1.9761E4,-3.2828857E2,1.3371332E1],"split_indices":[9,0,0],"split_type":[0,0,0],"sum_hessian":[7.0001E4,2.997E3,6.7004E4],"tree_param":{"num_deleted":"0","num_feature":"11","num_nodes":"3","size_leaf_vector":"1"}},{"base_weights":[-1.4291308E1,-2.2386374E1,2.1959769E2],"categories":[],"categories_nodes":[],"categories_segments":[],"categories_sizes":[],"default_left":[0,0,0],"id":130,"left_children":[1,-1,-1],"loss_changes":[3.2401185E10,0E0,0E0],"parents":[2147483647,0,0],"right_children":[2,-1,-1],"split_conditions":[3.34E2,-2.2386374E1,2.1959769E2],"split_indices":[4,0,0],"split_type":[0,0,0],"sum_hessian":[6.9947E4,6.389E4,6.057E3],"tree_param":{"num_deleted":"0","num_feature":"11","num_nodes":"3","size_leaf_vector":"1"}},{"base_weights":[-2.1809977E1,-1.1748937E1,4.8369223E2],"categories":[],"categories_nodes":[],"categories_segments":[],"categories_sizes":[],"default_left":[0,0,0],"id":131,"left_children":[1,-1,-1],"loss_changes":[3.2569629E10,0E0,0E0],"parents":[2147483647,0,0],"right_children":[2,-1,-1],"split_conditions":[1.16436E5,-1.1748937E1,4.8369223E2],"split_indices":[9,0,0],"split_type":[0,0,0],"sum_hessian":[7.0058E4,6.8706E4,1.352E3],"tree_param":{"num_deleted":"0","num_feature":"11","num_nodes":"3","size_leaf_vector":"1"}},{"base_weights":[-2.4126171E1,-2.1103633E2,2.0692833E1],"categories":[],"categories_nodes":[],"categories_segments":[],"categories_sizes":[],"default_left":[0,0,0],"id":132,"left_children":[1,-1,-1],"loss_changes":[3.3758763E10,0E0,0E0],"parents":[2147483647,0,0],"right_children":[2,-1,-1],"split_conditions":[2.016E3,-2.1103633E2,2.0692833E1],"split_indices":[7,0,0],"split_type":[0,0,0],"sum_hessian":[7.0032E4,6.982E3,6.305E4],"tree_param":{"num_deleted":"0","num_feature":"11","num_nodes":"3","size_leaf_vector":"1"}},{"base_weights":[1.8123125E1,1.10787674E2,-4.50285E1],"categories":[],"categories_nodes":[],"categories_segments":[],"categories_sizes":[],"default_left":[0,0,0],"id":133,"left_children":[1,-1,-1],"loss_changes":[3.5732984E10,0E0,0E0],"parents":[2147483647,0,0],"right_children":[2,-1,-1],"split_conditions":[2.018E3,1.10787674E2,-4.50285E1],"split_indices":[7,0,0],"split_type":[0,0,0],"sum_hessian":[7.0001E4,2.1043E4,4.8958E4],"tree_param":{"num_deleted":"0","num_feature":"11","num_nodes":"3","size_leaf_vector":"1"}},{"base_weights":[-1.2763013E1,8.1609215E1,-6.3333588E1],"categories":[],"categories_nodes":[],"categories_segments":[],"categories_sizes":[],"default_left":[0,0,0],"id":134,"left_children":[1,-1,-1],"loss_changes":[3.5944854E10,0E0,0E0],"parents":[2147483647,0,0],"right_children":[2,-1,-1],"split_conditions":[3E0,8.1609215E1,-6.3333588E1],"split_indices":[1,0,0],"split_type":[0,0,0],"sum_hessian":[6.988E4,2.9919E4,3.9961E4],"tree_param":{"num_deleted":"0","num_feature":"11","num_nodes":"3","size_leaf_vector":"1"}},{"base_weights":[1.652517E1,-1.9667009E2,2.3722235E1],"categories":[],"categories_nodes":[],"categories_segments":[],"categories_sizes":[],"default_left":[0,0,0],"id":135,"left_children":[1,-1,-1],"loss_changes":[3.0670445E10,0E0,0E0],"parents":[2147483647,0,0],"right_children":[2,-1,-1],"split_conditions":[2.016E3,-1.9667009E2,2.3722235E1],"split_indices":[7,0,0],"split_type":[0,0,0],"sum_hessian":[7.0071E4,7.016E3,6.3055E4],"tree_param":{"num_deleted":"0","num_feature":"11","num_nodes":"3","size_leaf_vector":"1"}},{"base_weights":[-8.151304E0,-1.3449774E2,3.4616154E1],"categories":[],"categories_nodes":[],"categories_segments":[],"categories_sizes":[],"default_left":[0,0,0],"id":136,"left_children":[1,-1,-1],"loss_changes":[3.3206028E10,0E0,0E0],"parents":[2147483647,0,0],"right_children":[2,-1,-1],"split_conditions":[5E0,-1.3449774E2,3.4616154E1],"split_indices":[0,0,0],"split_type":[0,0,0],"sum_hessian":[7.0104E4,1.4687E4,5.5417E4],"tree_param":{"num_deleted":"0","num_feature":"11","num_nodes":"3","size_leaf_vector":"1"}},{"base_weights":[1.4316937E1,4.5612617E1,-1.0201104E2],"categories":[],"categories_nodes":[],"categories_segments":[],"categories_sizes":[],"default_left":[0,0,0],"id":137,"left_children":[1,-1,-1],"loss_changes":[3.2031592E10,0E0,0E0],"parents":[2147483647,0,0],"right_children":[2,-1,-1],"split_conditions":[2.022E3,4.5612617E1,-1.0201104E2],"split_indices":[7,0,0],"split_type":[0,0,0],"sum_hessian":[7.0086E4,4.9111E4,2.0975E4],"tree_param":{"num_deleted":"0","num_feature":"11","num_nodes":"3","size_leaf_vector":"1"}},{"base_weights":[-5.702487E-1,4.1442753E1,-1.03591225E2],"categories":[],"categories_nodes":[],"categories_segments":[],"categories_sizes":[],"default_left":[0,0,0],"id":138,"left_children":[1,-1,-1],"loss_changes":[2.996438E10,0E0,0E0],"parents":[2147483647,0,0],"right_children":[2,-1,-1],"split_conditions":[5E0,4.1442753E1,-1.03591225E2],"split_indices":[1,0,0],"split_type":[0,0,0],"sum_hessian":[6.9737E4,4.9783E4,1.9954E4],"tree_param":{"num_deleted":"0","num_feature":"11","num_nodes":"3","size_leaf_vector":"1"}},{"base_weights":[2.2788515E1,-1.86826E2,2.5454561E1],"categories":[],"categories_nodes":[],"categories_segments":[],"categories_sizes":[],"default_left":[0,0,0],"id":139,"left_children":[1,-1,-1],"loss_changes":[3.0685522E10,0E0,0E0],"parents":[2147483647,0,0],"right_children":[2,-1,-1],"split_conditions":[2.2625E4,-1.86826E2,2.5454561E1],"split_indices":[10,0,0],"split_type":[0,0,0],"sum_hessian":[7.0014E4,7.643E3,6.2371E4],"tree_param":{"num_deleted":"0","num_feature":"11","num_nodes":"3","size_leaf_vector":"1"}},{"base_weights":[-4.7285244E-2,-8.149183E0,5.071961E2],"categories":[],"categories_nodes":[],"categories_segments":[],"categories_sizes":[],"default_left":[0,0,0],"id":140,"left_children":[1,-1,-1],"loss_changes":[2.8830605E10,0E0,0E0],"parents":[2147483647,0,0],"right_children":[2,-1,-1],"split_conditions":[1.21568E5,-8.149183E0,5.071961E2],"split_indices":[10,0,0],"split_type":[0,0,0],"sum_hessian":[6.9791E4,6.8689E4,1.102E3],"tree_param":{"num_deleted":"0","num_feature":"11","num_nodes":"3","size_leaf_vector":"1"}},{"base_weights":[-2.429812E0,5.5668713E1,-7.673474E1],"categories":[],"categories_nodes":[],"categories_segments":[],"categories_sizes":[],"default_left":[0,0,0],"id":141,"left_children":[1,-1,-1],"loss_changes":[2.9991375E10,0E0,0E0],"parents":[2147483647,0,0],"right_children":[2,-1,-1],"split_conditions":[5.2698E4,5.5668713E1,-7.673474E1],"split_indices":[8,0,0],"split_type":[0,0,0],"sum_hessian":[7.0124E4,4.0512E4,2.9612E4],"tree_param":{"num_deleted":"0","num_feature":"11","num_nodes":"3","size_leaf_vector":"1"}},{"base_weights":[-1.8478325E1,-2.3098564E2,1.4620783E1],"categories":[],"categories_nodes":[],"categories_segments":[],"categories_sizes":[],"default_left":[0,0,0],"id":142,"left_children":[1,-1,-1],"loss_changes":[2.6388625E10,0E0,0E0],"parents":[2147483647,0,0],"right_children":[2,-1,-1],"split_conditions":[2.0581E4,-2.3098564E2,1.4620783E1],"split_indices":[8,0,0],"split_type":[0,0,0],"sum_hessian":[6.9928E4,4.688E3,6.524E4],"tree_param":{"num_deleted":"0","num_feature":"11","num_nodes":"3","size_leaf_vector":"1"}},{"base_weights":[-4.4126507E1,-8.202483E0,1.0068212E3],"categories":[],"categories_nodes":[],"categories_segments":[],"categories_sizes":[],"default_left":[0,0,0],"id":143,"left_children":[1,-1,-1],"loss_changes":[2.6789722E10,0E0,0E0],"parents":[2147483647,0,0],"right_children":[2,-1,-1],"split_conditions":[1.36155E5,-8.202483E0,1.0068212E3],"split_indices":[10,0,0],"split_type":[0,0,0],"sum_hessian":[6.99E4,6.964E4,2.6E2],"tree_param":{"num_deleted":"0","num_feature":"11","num_nodes":"3","size_leaf_vector":"1"}},{"base_weights":[1.2811458E1,6.619236E1,-6.3763348E1],"categories":[],"categories_nodes":[],"categories_segments":[],"categories_sizes":[],"default_left":[0,0,0],"id":144,"left_children":[1,-1,-1],"loss_changes":[2.9647704E10,0E0,0E0],"parents":[2147483647,0,0],"right_children":[2,-1,-1],"split_conditions":[2.02E3,6.619236E1,-6.3763348E1],"split_indices":[7,0,0],"split_type":[0,0,0],"sum_hessian":[7.0218E4,3.5145E4,3.5073E4],"tree_param":{"num_deleted":"0","num_feature":"11","num_nodes":"3","size_leaf_vector":"1"}},{"base_weights":[1.50795555E1,-2.1460909E1,1.9301698E2],"categories":[],"categories_nodes":[],"categories_segments":[],"categories_sizes":[],"default_left":[0,0,0],"id":145,"left_children":[1,-1,-1],"loss_changes":[3.082638E10,0E0,0E0],"parents":[2147483647,0,0],"right_children":[2,-1,-1],"split_conditions":[3.27E2,-2.1460909E1,1.9301698E2],"split_indices":[4,0,0],"split_type":[0,0,0],"sum_hessian":[7.0078E4,6.2574E4,7.504E3],"tree_param":{"num_deleted":"0","num_feature":"11","num_nodes":"3","size_leaf_vector":"1"}},{"base_weights":[-1.4427909E1,-1.8906213E2,1.9328566E1],"categories":[],"categories_nodes":[],"categories_segments":[],"categories_sizes":[],"default_left":[0,0,0],"id":146,"left_children":[1,-1,-1],"loss_changes":[2.733741E10,0E0,0E0],"parents":[2147483647,0,0],"right_children":[2,-1,-1],"split_conditions":[2.016E3,-1.8906213E2,1.9328566E1],"split_indices":[7,0,0],"split_type":[0,0,0],"sum_hessian":[7.0146E4,6.991E3,6.3155E4],"tree_param":{"num_deleted":"0","num_feature":"11","num_nodes":"3","size_leaf_vector":"1"}},{"base_weights":[1.4264377E1,2.5069322E2,-1.8552658E1],"categories":[],"categories_nodes":[],"categories_segments":[],"categories_sizes":[],"default_left":[0,0,0],"id":147,"left_children":[1,-1,-1],"loss_changes":[3.4825486E10,0E0,0E0],"parents":[2147483647,0,0],"right_children":[2,-1,-1],"split_conditions":[2.8E1,2.5069322E2,-1.8552658E1],"split_indices":[4,0,0],"split_type":[0,0,0],"sum_hessian":[6.9927E4,5.188E3,6.4739E4],"tree_param":{"num_deleted":"0","num_feature":"11","num_nodes":"3","size_leaf_vector":"1"}},{"base_weights":[1.9760809E1,5.5438232E1,-7.138862E1],"categories":[],"categories_nodes":[],"categories_segments":[],"categories_sizes":[],"default_left":[0,0,0],"id":148,"left_children":[1,-1,-1],"loss_changes":[2.7503497E10,0E0,0E0],"parents":[2147483647,0,0],"right_children":[2,-1,-1],"split_conditions":[5.2698E4,5.5438232E1,-7.138862E1],"split_indices":[8,0,0],"split_type":[0,0,0],"sum_hessian":[7.012E4,4.0562E4,2.9558E4],"tree_param":{"num_deleted":"0","num_feature":"11","num_nodes":"3","size_leaf_vector":"1"}},{"base_weights":[9.951002E0,9.621995E1,-3.98995E1],"categories":[],"categories_nodes":[],"categories_segments":[],"categories_sizes":[],"default_left":[0,0,0],"id":149,"left_children":[1,-1,-1],"loss_changes":[2.7246029E10,0E0,0E0],"parents":[2147483647,0,0],"right_children":[2,-1,-1],"split_conditions":[2.018E3,9.621995E1,-3.98995E1],"split_indices":[7,0,0],"split_type":[0,0,0],"sum_hessian":[6.9964E4,2.1019E4,4.8945E4],"tree_param":{"num_deleted":"0","num_feature":"11","num_nodes":"3","size_leaf_vector":"1"}},{"base_weights":[-1.4841858E1,-1.9213286E2,1.984126E1],"categories":[],"categories_nodes":[],"categories_segments":[],"categories_sizes":[],"default_left":[0,0,0],"id":150,"left_children":[1,-1,-1],"loss_changes":[2.8410053E10,0E0,0E0],"parents":[2147483647,0,0],"right_children":[2,-1,-1],"split_conditions":[2.016E3,-1.9213286E2,1.984126E1],"split_indices":[7,0,0],"split_type":[0,0,0],"sum_hessian":[6.9876E4,7.029E3,6.2847E4],"tree_param":{"num_deleted":"0","num_feature":"11","num_nodes":"3","size_leaf_vector":"1"}},{"base_weights":[1.9841871E1,-1.291224E2,3.226766E1],"categories":[],"categories_nodes":[],"categories_segments":[],"categories_sizes":[],"default_left":[0,0,0],"id":151,"left_children":[1,-1,-1],"loss_changes":[2.7854098E10,0E0,0E0],"parents":[2147483647,0,0],"right_children":[2,-1,-1],"split_conditions":[2.5807E4,-1.291224E2,3.226766E1],"split_indices":[9,0,0],"split_type":[0,0,0],"sum_hessian":[7.0153E4,1.3163E4,5.699E4],"tree_param":{"num_deleted":"0","num_feature":"11","num_nodes":"3","size_leaf_vector":"1"}},{"base_weights":[1.4026105E1,5.607443E1,-7.163912E1],"categories":[],"categories_nodes":[],"categories_segments":[],"categories_sizes":[],"default_left":[0,0,0],"id":152,"left_children":[1,-1,-1],"loss_changes":[2.7957264E10,0E0,0E0],"parents":[2147483647,0,0],"right_children":[2,-1,-1],"split_conditions":[4E0,5.607443E1,-7.163912E1],"split_indices":[1,0,0],"split_type":[0,0,0],"sum_hessian":[7.0008E4,4.0039E4,2.9969E4],"tree_param":{"num_deleted":"0","num_feature":"11","num_nodes":"3","size_leaf_vector":"1"}},{"base_weights":[-2.148786E1,7.2066665E0,-3.994114E2],"categories":[],"categories_nodes":[],"categories_segments":[],"categories_sizes":[],"default_left":[0,0,0],"id":153,"left_children":[1,-1,-1],"loss_changes":[2.6007001E10,0E0,0E0],"parents":[2147483647,0,0],"right_children":[2,-1,-1],"split_conditions":[5.2E1,7.2066665E0,-3.994114E2],"split_indices":[3,0,0],"split_type":[0,0,0],"sum_hessian":[6.9974E4,6.8365E4,1.609E3],"tree_param":{"num_deleted":"0","num_feature":"11","num_nodes":"3","size_leaf_vector":"1"}},{"base_weights":[2.4319815E1,-1.1762085E2,3.4093037E1],"categories":[],"categories_nodes":[],"categories_segments":[],"categories_sizes":[],"default_left":[0,0,0],"id":154,"left_children":[1,-1,-1],"loss_changes":[2.6639323E10,0E0,0E0],"parents":[2147483647,0,0],"right_children":[2,-1,-1],"split_conditions":[5E0,-1.1762085E2,3.4093037E1],"split_indices":[0,0,0],"split_type":[0,0,0],"sum_hessian":[7.0083E4,1.4625E4,5.5458E4],"tree_param":{"num_deleted":"0","num_feature":"11","num_nodes":"3","size_leaf_vector":"1"}},{"base_weights":[1.8962946E1,9.536675E1,-3.8554752E1],"categories":[],"categories_nodes":[],"categories_segments":[],"categories_sizes":[],"default_left":[0,0,0],"id":155,"left_children":[1,-1,-1],"loss_changes":[2.653754E10,0E0,0E0],"parents":[2147483647,0,0],"right_children":[2,-1,-1],"split_conditions":[2.018E3,9.536675E1,-3.8554752E1],"split_indices":[7,0,0],"split_type":[0,0,0],"sum_hessian":[7.0185E4,2.1199E4,4.8986E4],"tree_param":{"num_deleted":"0","num_feature":"11","num_nodes":"3","size_leaf_vector":"1"}},{"base_weights":[-5.7002735E0,5.1325195E1,-7.188646E1],"categories":[],"categories_nodes":[],"categories_segments":[],"categories_sizes":[],"default_left":[0,0,0],"id":156,"left_children":[1,-1,-1],"loss_changes":[2.5984967E10,0E0,0E0],"parents":[2147483647,0,0],"right_children":[2,-1,-1],"split_conditions":[5.2698E4,5.1325195E1,-7.188646E1],"split_indices":[8,0,0],"split_type":[0,0,0],"sum_hessian":[7.0209E4,4.0638E4,2.9571E4],"tree_param":{"num_deleted":"0","num_feature":"11","num_nodes":"3","size_leaf_vector":"1"}},{"base_weights":[1.5872467E1,-2.2780882E2,1.7759996E1],"categories":[],"categories_nodes":[],"categories_segments":[],"categories_sizes":[],"default_left":[0,0,0],"id":157,"left_children":[1,-1,-1],"loss_changes":[2.5918589E10,0E0,0E0],"parents":[2147483647,0,0],"right_children":[2,-1,-1],"split_conditions":[2.0855E4,-2.2780882E2,1.7759996E1],"split_indices":[10,0,0],"split_type":[0,0,0],"sum_hessian":[6.986E4,4.6E3,6.526E4],"tree_param":{"num_deleted":"0","num_feature":"11","num_nodes":"3","size_leaf_vector":"1"}},{"base_weights":[2.3708344E1,-1.9775862E1,1.7814546E2],"categories":[],"categories_nodes":[],"categories_segments":[],"categories_sizes":[],"default_left":[0,0,0],"id":158,"left_children":[1,-1,-1],"loss_changes":[2.726805E10,0E0,0E0],"parents":[2147483647,0,0],"right_children":[2,-1,-1],"split_conditions":[3.25E2,-1.9775862E1,1.7814546E2],"split_indices":[4,0,0],"split_type":[0,0,0],"sum_hessian":[7.0045E4,6.2208E4,7.837E3],"tree_param":{"num_deleted":"0","num_feature":"11","num_nodes":"3","size_leaf_vector":"1"}},{"base_weights":[2.1560215E1,-6.4019265E0,4.33509E2],"categories":[],"categories_nodes":[],"categories_segments":[],"categories_sizes":[],"default_left":[0,0,0],"id":159,"left_children":[1,-1,-1],"loss_changes":[2.5882841E10,0E0,0E0],"parents":[2147483647,0,0],"right_children":[2,-1,-1],"split_conditions":[1.16436E5,-6.4019265E0,4.33509E2],"split_indices":[9,0,0],"split_type":[0,0,0],"sum_hessian":[7.0113E4,6.875E4,1.363E3],"tree_param":{"num_deleted":"0","num_feature":"11","num_nodes":"3","size_leaf_vector":"1"}},{"base_weights":[-5.7921124E-1,2.9588825E1,-1.18345825E2],"categories":[],"categories_nodes":[],"categories_segments":[],"categories_sizes":[],"default_left":[0,0,0],"id":160,"left_children":[1,-1,-1],"loss_changes":[2.4631425E10,0E0,0E0],"parents":[2147483647,0,0],"right_children":[2,-1,-1],"split_conditions":[2.023E3,2.9588825E1,-1.18345825E2],"split_indices":[7,0,0],"split_type":[0,0,0],"sum_hessian":[7.0236E4,5.6161E4,1.4075E4],"tree_param":{"num_deleted":"0","num_feature":"11","num_nodes":"3","size_leaf_vector":"1"}},{"base_weights":[5.4136715E0,-1.7886928E2,2.059941E1],"categories":[],"categories_nodes":[],"categories_segments":[],"categories_sizes":[],"default_left":[0,0,0],"id":161,"left_children":[1,-1,-1],"loss_changes":[2.5179597E10,0E0,0E0],"parents":[2147483647,0,0],"right_children":[2,-1,-1],"split_conditions":[2.016E3,-1.7886928E2,2.059941E1],"split_indices":[7,0,0],"split_type":[0,0,0],"sum_hessian":[6.9968E4,7.035E3,6.2933E4],"tree_param":{"num_deleted":"0","num_feature":"11","num_nodes":"3","size_leaf_vector":"1"}},{"base_weights":[7.710491E0,9.660956E1,-3.7611324E1],"categories":[],"categories_nodes":[],"categories_segments":[],"categories_sizes":[],"default_left":[0,0,0],"id":162,"left_children":[1,-1,-1],"loss_changes":[2.5655024E10,0E0,0E0],"parents":[2147483647,0,0],"right_children":[2,-1,-1],"split_conditions":[2E0,9.660956E1,-3.7611324E1],"split_indices":[1,0,0],"split_type":[0,0,0],"sum_hessian":[6.9741E4,1.9943E4,4.9798E4],"tree_param":{"num_deleted":"0","num_feature":"11","num_nodes":"3","size_leaf_vector":"1"}},{"base_weights":[1.8110641E1,-1.214619E1,2.6548233E2],"categories":[],"categories_nodes":[],"categories_segments":[],"categories_sizes":[],"default_left":[0,0,0],"id":163,"left_children":[1,-1,-1],"loss_changes":[2.5811261E10,0E0,0E0],"parents":[2147483647,0,0],"right_children":[2,-1,-1],"split_conditions":[1.05131E5,-1.214619E1,2.6548233E2],"split_indices":[9,0,0],"split_type":[0,0,0],"sum_hessian":[7.0135E4,6.661E4,3.525E3],"tree_param":{"num_deleted":"0","num_feature":"11","num_nodes":"3","size_leaf_vector":"1"}},{"base_weights":[-1.2842216E1,5.018643E1,-7.1875984E1],"categories":[],"categories_nodes":[],"categories_segments":[],"categories_sizes":[],"default_left":[0,0,0],"id":164,"left_children":[1,-1,-1],"loss_changes":[2.5513759E10,0E0,0E0],"parents":[2147483647,0,0],"right_children":[2,-1,-1],"split_conditions":[5.2698E4,5.018643E1,-7.1875984E1],"split_indices":[8,0,0],"split_type":[0,0,0],"sum_hessian":[7.0218E4,4.0609E4,2.9609E4],"tree_param":{"num_deleted":"0","num_feature":"11","num_nodes":"3","size_leaf_vector":"1"}},